{"learner":{"attributes":{"scikit_learn":"{\"_estimator_type\": \"classifier\"}"},"feature_names":["Time","V1","V2","V3","V4","V5","V6","V7","V8","V9","V10","V11","V12","V13","V14","V15","V16","V17","V18","V19","V20","V21","V22","V23","V24","V25","V26","V27","V28","Amount","Hour"],"feature_types":["float","float","float","float","float","float","float","float","float","float","float","float","float","float","float","float","float","float","float","float","float","float","float","float","float","float","float","float","float","float","float"],"gradient_booster":{"model":{"gbtree_model_param":{"num_parallel_tree":"1","num_trees":"500"},"iteration_indptr":[0,1,2,3,4,5,6,7,8,9,10,11,12,13,14,15,16,17,18,19,20,21,22,23,24,25,26,27,28,29,30,31,32,33,34,35,36,37,38,39,40,41,42,43,44,45,46,47,48,49,50,51,52,53,54,55,56,57,58,59,60,61,62,63,64,65,66,67,68,69,70,71,72,73,74,75,76,77,78,79,80,81,82,83,84,85,86,87,88,89,90,91,92,93,94,95,96,97,98,99,100,101,102,103,104,105,106,107,108,109,110,111,112,113,114,115,116,117,118,119,120,121,122,123,124,125,126,127,128,129,130,131,132,133,134,135,136,137,138,139,140,141,142,143,144,145,146,147,148,149,150,151,152,153,154,155,156,157,158,159,160,161,162,163,164,165,166,167,168,169,170,171,172,173,174,175,176,177,178,179,180,181,182,183,184,185,186,187,188,189,190,191,192,193,194,195,196,197,198,199,200,201,202,203,204,205,206,207,208,209,210,211,212,213,214,215,216,217,218,219,220,221,222,223,224,225,226,227,228,229,230,231,232,233,234,235,236,237,238,239,240,241,242,243,244,245,246,247,248,249,250,251,252,253,254,255,256,257,258,259,260,261,262,263,264,265,266,267,268,269,270,271,272,273,274,275,276,277,278,279,280,281,282,283,284,285,286,287,288,289,290,291,292,293,294,295,296,297,298,299,300,301,302,303,304,305,306,307,308,309,310,311,312,313,314,315,316,317,318,319,320,321,322,323,324,325,326,327,328,329,330,331,332,333,334,335,336,337,338,339,340,341,342,343,344,345,346,347,348,349,350,351,352,353,354,355,356,357,358,359,360,361,362,363,364,365,366,367,368,369,370,371,372,373,374,375,376,377,378,379,380,381,382,383,384,385,386,387,388,389,390,391,392,393,394,395,396,397,398,399,400,401,402,403,404,405,406,407,408,409,410,411,412,413,414,415,416,417,418,419,420,421,422,423,424,425,426,427,428,429,430,431,432,433,434,435,436,437,438,439,440,441,442,443,444,445,446,447,448,449,450,451,452,453,454,455,456,457,458,459,460,461,462,463,464,465,466,467,468,469,470,471,472,473,474,475,476,477,478,479,480,481,482,483,484,485,486,487,488,489,490,491,492,493,494,495,496,497,498,499,500],"tree_info":[0,0,0,0,0,0,0,0,0,0,0,0,0,0,0,0,0,0,0,0,0,0,0,0,0,0,0,0,0,0,0,0,0,0,0,0,0,0,0,0,0,0,0,0,0,0,0,0,0,0,0,0,0,0,0,0,0,0,0,0,0,0,0,0,0,0,0,0,0,0,0,0,0,0,0,0,0,0,0,0,0,0,0,0,0,0,0,0,0,0,0,0,0,0,0,0,0,0,0,0,0,0,0,0,0,0,0,0,0,0,0,0,0,0,0,0,0,0,0,0,0,0,0,0,0,0,0,0,0,0,0,0,0,0,0,0,0,0,0,0,0,0,0,0,0,0,0,0,0,0,0,0,0,0,0,0,0,0,0,0,0,0,0,0,0,0,0,0,0,0,0,0,0,0,0,0,0,0,0,0,0,0,0,0,0,0,0,0,0,0,0,0,0,0,0,0,0,0,0,0,0,0,0,0,0,0,0,0,0,0,0,0,0,0,0,0,0,0,0,0,0,0,0,0,0,0,0,0,0,0,0,0,0,0,0,0,0,0,0,0,0,0,0,0,0,0,0,0,0,0,0,0,0,0,0,0,0,0,0,0,0,0,0,0,0,0,0,0,0,0,0,0,0,0,0,0,0,0,0,0,0,0,0,0,0,0,0,0,0,0,0,0,0,0,0,0,0,0,0,0,0,0,0,0,0,0,0,0,0,0,0,0,0,0,0,0,0,0,0,0,0,0,0,0,0,0,0,0,0,0,0,0,0,0,0,0,0,0,0,0,0,0,0,0,0,0,0,0,0,0,0,0,0,0,0,0,0,0,0,0,0,0,0,0,0,0,0,0,0,0,0,0,0,0,0,0,0,0,0,0,0,0,0,0,0,0,0,0,0,0,0,0,0,0,0,0,0,0,0,0,0,0,0,0,0,0,0,0,0,0,0,0,0,0,0,0,0,0,0,0,0,0,0,0,0,0,0,0,0,0,0,0,0,0,0,0,0,0,0,0,0,0,0,0,0,0,0,0,0,0,0,0,0,0,0,0,0,0,0,0,0,0,0,0,0,0,0,0,0,0,0,0,0,0,0,0,0,0,0,0,0,0,0,0,0,0,0,0,0,0,0,0,0,0,0,0,0,0,0,0],"trees":[{"base_weights":[3.7567855E-9,1.8677425E0,-1.5291424E0,-1.1748894E0,1.9100101E0,-1.7436994E0,-1.5908578E-1,-1.9962424E-1,1.391178E0,1.9940448E0,1.113529E0,5.689281E-2,-1.8015854E0,9.9632746E-1,-8.879444E-1,1.92546E0,-1.9175258E-1,1.9954444E0,-1.882353E-1,1.3045855E0,-1.9928508E-1,1.086319E0,-1.9964476E-1,-1.8321171E0,1.9277513E-1,1.3660388E0,-9.117731E-1,7.158029E-2,-1.609746E0,-1.3846155E-1,1.9862375E-1,-1.68E-1,1.9959038E0,1.6071817E0,-3.5279572E-1,-1.9877489E-1,1.6075697E0,-1.2937839E0,-1.9102551E0,1.5807649E0,-1.993496E-1,1.75866E0,3.1655478E-1,-1.9947334E-1,1.7720934E0,7.958176E-1,-1.9965443E-1,-3.7535563E-1,-1.9991122E-1,-1.3333334E-1,1.996079E-1,-1.9756098E-1,1.68488E-1,-1.9950062E-1,1.8215722E-1,-1.9692308E-1,1.8650578E-1,-1.8544897E-1,-4.2208817E-2,-1.958021E-1,-1.3833712E-1,-1.9466667E-1,1.8726869E-1,1.8237555E-1,-1.9428572E-1,-1.992933E-1,1.7170207E-1,-1.7837839E-1,1.9862375E-1,-1.9889043E-1,1.13596715E-1,-1.9945616E-1,1.3509944E-1],"categories":[],"categories_nodes":[],"categories_segments":[],"categories_sizes":[],"default_left":[0,0,0,0,0,0,0,0,0,0,0,0,0,0,0,0,0,0,0,0,0,0,0,0,0,0,0,0,0,0,0,0,0,0,0,0,0,0,0,0,0,0,0,0,0,0,0,0,0,0,0,0,0,0,0,0,0,0,0,0,0,0,0,0,0,0,0,0,0,0,0,0,0],"id":0,"left_children":[1,3,5,7,9,11,13,-1,15,17,19,21,23,25,27,29,-1,31,-1,33,-1,35,-1,37,39,41,43,45,47,-1,-1,-1,49,51,53,-1,55,57,59,61,-1,63,65,-1,67,69,-1,71,-1,-1,-1,-1,-1,-1,-1,-1,-1,-1,-1,-1,-1,-1,-1,-1,-1,-1,-1,-1,-1,-1,-1,-1,-1],"loss_changes":[3.2481075E5,6.5862188E3,1.8381312E4,1.4824966E3,3.3774844E3,5.63525E3,7.132012E3,0E0,3.0566745E2,2.5157812E2,2.8640518E3,3.5637107E3,3.1899062E3,2.312266E3,3.5966938E3,3.2438354E1,0E0,8.0453125E1,0E0,2.2787676E3,0E0,1.8025339E3,0E0,2.1676875E3,2.4025933E3,1.130374E3,1.550739E3,3.3421968E3,1.423665E3,0E0,0E0,0E0,2.9265625E1,1.0727031E3,2.5108267E3,0E0,8.8844336E2,3.196874E3,1.1310469E3,5.022589E2,0E0,4.8476904E2,2.4242266E3,0E0,1.20483246E2,1.567613E3,0E0,1.9926617E3,0E0,0E0,0E0,0E0,0E0,0E0,0E0,0E0,0E0,0E0,0E0,0E0,0E0,0E0,0E0,0E0,0E0,0E0,0E0,0E0,0E0,0E0,0E0,0E0,0E0],"parents":[2147483647,0,0,1,1,2,2,3,3,4,4,5,5,6,6,8,8,9,9,10,10,11,11,12,12,13,13,14,14,15,15,17,17,19,19,21,21,23,23,24,24,25,25,26,26,27,27,28,28,32,32,33,33,34,34,36,36,37,37,38,38,39,39,41,41,42,42,44,44,45,45,47,47],"right_children":[2,4,6,8,10,12,14,-1,16,18,20,22,24,26,28,30,-1,32,-1,34,-1,36,-1,38,40,42,44,46,48,-1,-1,-1,50,52,54,-1,56,58,60,62,-1,64,66,-1,68,70,-1,72,-1,-1,-1,-1,-1,-1,-1,-1,-1,-1,-1,-1,-1,-1,-1,-1,-1,-1,-1,-1,-1,-1,-1,-1,-1],"split_conditions":[-1.7859976E0,-4.8604634E-1,1.620582E0,1.66793E5,-1.4160796E0,-9.853448E-1,-2.201951E-1,-1.9962424E-1,-1.0690001E0,5.767415E-1,4.7627756E-1,-7.4986964E-2,2.4990346E0,3.6880842E-1,1.06149286E-1,8.8412404E-1,-1.9175258E-1,-7.0277715E-1,-1.882353E-1,5.2214855E-1,-1.9928508E-1,3.127109E-2,-1.9964476E-1,-8.069166E-1,-5.366979E-1,-5.725717E-1,2.1755762E0,-4.3405853E-2,-6.861937E-1,-1.3846155E-1,1.9862375E-1,-1.68E-1,5.761E3,-5.603482E-2,3.4139E2,-1.9877489E-1,-2.1592973E-1,2.8455114E-1,1.0663408E0,2.8455114E-1,-1.993496E-1,1.2034454E0,1.1736002E0,-1.9947334E-1,1.3146542E0,-5.494696E-2,-1.9965443E-1,-7.6125324E-1,-1.9991122E-1,-1.3333334E-1,1.996079E-1,-1.9756098E-1,1.68488E-1,-1.9950062E-1,1.8215722E-1,-1.9692308E-1,1.8650578E-1,-1.8544897E-1,-4.2208817E-2,-1.958021E-1,-1.3833712E-1,-1.9466667E-1,1.8726869E-1,1.8237555E-1,-1.9428572E-1,-1.992933E-1,1.7170207E-1,-1.7837839E-1,1.9862375E-1,-1.9889043E-1,1.13596715E-1,-1.9945616E-1,1.3509944E-1],"split_indices":[14,4,4,0,12,20,8,0,7,10,26,12,7,13,6,11,0,11,0,15,0,28,0,14,26,12,17,12,18,0,0,0,0,16,29,0,4,15,7,15,0,3,22,0,7,23,0,18,0,0,0,0,0,0,0,0,0,0,0,0,0,0,0,0,0,0,0,0,0,0,0,0,0],"split_type":[0,0,0,0,0,0,0,0,0,0,0,0,0,0,0,0,0,0,0,0,0,0,0,0,0,0,0,0,0,0,0,0,0,0,0,0,0,0,0,0,0,0,0,0,0,0,0,0,0,0,0,0,0,0,0,0,0,0,0,0,0,0,0,0,0,0,0,0,0,0,0,0,0],"sum_hessian":[1.137255E5,5.1194594E4,6.2530906E4,7.010717E2,5.0493523E4,5.4063973E4,8.466936E3,5.3125E2,1.698217E2,4.5673156E4,4.8203643E3,1.6839302E3,5.238004E4,3.274969E3,5.191967E3,1.465717E2,2.325E1,4.5657156E4,1.6E1,4.5416143E3,2.7875E2,1.1219302E3,5.62E2,5.1590324E4,7.897151E2,2.7436472E3,5.313217E2,2.2293237E3,2.9626433E3,2.25E0,1.443217E2,5.25E0,4.5651906E4,3.8404707E3,7.0114343E2,1.6225E2,9.596802E2,6.5413237E3,4.5049E4,4.832151E2,3.065E2,1.9961821E3,7.474651E2,3.7875E2,1.525717E2,1.6515736E3,5.7775E2,7.1089343E2,2.25175E3,2E0,4.5649906E4,8.1E1,3.7594707E3,3.995E2,3.016434E2,6.4E1,8.956802E2,3.9800718E3,2.561252E3,4.1301965E4,3.7470369E3,3.65E1,4.467151E2,1.9621821E3,3.4E1,2.82E2,4.654651E2,8.25E0,1.443217E2,1.7925E2,1.4723236E3,3.6675E2,3.441434E2],"tree_param":{"num_deleted":"0","num_feature":"31","num_nodes":"73","size_leaf_vector":"1"}},{"base_weights":[-1.482773E-5,1.6979849E0,-1.3886595E0,-1.0687542E0,1.7364137E0,-1.5836244E0,-1.445614E-1,-1.8155865E-1,1.2638707E0,1.7521335E0,-1.8710342E-1,5.1413555E-2,-1.6361587E0,9.045993E-1,-8.058069E-1,1.7508596E0,-1.7495671E-1,1.7650288E0,-1.8904617E-1,9.865441E-1,-1.8157586E-1,-1.6638685E0,1.7486727E-1,1.2400513E0,-8.2936835E-1,2.3806381E-1,-1.3582743E0,-1.2931876E-1,1.8072122E-1,1.8146597E0,1.255987E0,-1.8084778E-1,1.4599676E0,-1.1710595E0,-1.7356699E0,1.4356939E0,-1.8132883E-1,1.5964981E0,2.8725442E-1,-1.8143241E-1,1.6111221E0,1.2442843E0,-1.172601E0,-4.3080945E-2,-1.8275684E-1,-1.507896E-1,1.8150215E-1,1.3589002E-1,-1.8066667E-1,-1.7929663E-1,1.6939275E-1,-4.19722E-2,-1.7153366E-1,-1.7797965E-1,-1.251257E-1,1.6940816E-1,-1.8791585E-1,1.6556607E-1,-1.7708458E-1,-1.8511496E-1,1.5467292E-1,-1.6366605E-1,1.8072122E-1,1.6405238E-1,-1.824552E-1,1.6965388E-1,-1.9086055E-1,-1.8187386E-1,1.354131E-1],"categories":[],"categories_nodes":[],"categories_segments":[],"categories_sizes":[],"default_left":[0,0,0,0,0,0,0,0,0,0,0,0,0,0,0,0,0,0,0,0,0,0,0,0,0,0,0,0,0,0,0,0,0,0,0,0,0,0,0,0,0,0,0,0,0,0,0,0,0,0,0,0,0,0,0,0,0,0,0,0,0,0,0,0,0,0,0,0,0],"id":1,"left_children":[1,3,5,7,9,11,13,-1,15,17,-1,19,21,23,25,27,-1,29,-1,31,-1,33,35,37,39,41,43,-1,-1,45,47,-1,49,51,53,55,-1,57,59,-1,61,63,65,67,-1,-1,-1,-1,-1,-1,-1,-1,-1,-1,-1,-1,-1,-1,-1,-1,-1,-1,-1,-1,-1,-1,-1,-1,-1],"loss_changes":[2.657263E5,5.392453E3,1.5037016E4,1.2133481E3,2.8390312E3,4.6037188E3,5.8284023E3,0E0,2.5134323E2,2.3420781E3,0E0,2.9166716E3,2.6061719E3,1.890273E3,2.9722034E3,2.7407135E1,0E0,1.2512031E3,0E0,1.4753646E3,0E0,1.8076875E3,1.9664995E3,9.2395996E2,1.2699519E3,2.5341594E3,2.079874E3,0E0,0E0,5.7078125E1,1.3927036E3,0E0,7.278058E2,2.66029E3,9.519531E2,4.142923E2,0E0,3.9751514E2,2.0019928E3,0E0,9.9819E1,1.269969E3,1.5730114E3,2.2037334E3,0E0,0E0,0E0,0E0,0E0,0E0,0E0,0E0,0E0,0E0,0E0,0E0,0E0,0E0,0E0,0E0,0E0,0E0,0E0,0E0,0E0,0E0,0E0,0E0,0E0],"parents":[2147483647,0,0,1,1,2,2,3,3,4,4,5,5,6,6,8,8,9,9,11,11,12,12,13,13,14,14,15,15,17,17,19,19,21,21,22,22,23,23,24,24,25,25,26,26,29,29,30,30,32,32,33,33,34,34,35,35,37,37,38,38,40,40,41,41,42,42,43,43],"right_children":[2,4,6,8,10,12,14,-1,16,18,-1,20,22,24,26,28,-1,30,-1,32,-1,34,36,38,40,42,44,-1,-1,46,48,-1,50,52,54,56,-1,58,60,-1,62,64,66,68,-1,-1,-1,-1,-1,-1,-1,-1,-1,-1,-1,-1,-1,-1,-1,-1,-1,-1,-1,-1,-1,-1,-1,-1,-1],"split_conditions":[-1.7859976E0,-4.8604634E-1,1.620582E0,1.66793E5,1.9941158E0,-9.853448E-1,-2.201951E-1,-1.8155865E-1,-1.0690001E0,5.767415E-1,-1.8710342E-1,-7.4986964E-2,2.4990346E0,3.6880842E-1,-9.190497E-2,8.8412404E-1,-1.7495671E-1,-1.4160796E0,-1.8904617E-1,3.127109E-2,-1.8157586E-1,-8.069166E-1,-5.366979E-1,-5.725717E-1,2.1755762E0,-1.3017312E-1,-6.861937E-1,-1.2931876E-1,1.8072122E-1,-7.0277715E-1,4.7627756E-1,-1.8084778E-1,-2.1592973E-1,-3.0032024E-1,1.0663408E0,-5.171353E-1,-1.8132883E-1,1.2034454E0,2.1E1,-1.8143241E-1,1.3146542E0,-2.761215E-1,-1.8650155E0,-7.6125324E-1,-1.8275684E-1,-1.507896E-1,1.8150215E-1,1.3589002E-1,-1.8066667E-1,-1.7929663E-1,1.6939275E-1,-4.19722E-2,-1.7153366E-1,-1.7797965E-1,-1.251257E-1,1.6940816E-1,-1.8791585E-1,1.6556607E-1,-1.7708458E-1,-1.8511496E-1,1.5467292E-1,-1.6366605E-1,1.8072122E-1,1.6405238E-1,-1.824552E-1,1.6965388E-1,-1.9086055E-1,-1.8187386E-1,1.354131E-1],"split_indices":[14,4,4,0,1,20,8,0,7,10,0,12,7,13,6,11,0,12,0,28,0,14,26,12,17,10,18,0,0,11,26,0,4,13,7,13,0,3,30,0,7,12,25,18,0,0,0,0,0,0,0,0,0,0,0,0,0,0,0,0,0,0,0,0,0,0,0,0,0],"split_type":[0,0,0,0,0,0,0,0,0,0,0,0,0,0,0,0,0,0,0,0,0,0,0,0,0,0,0,0,0,0,0,0,0,0,0,0,0,0,0,0,0,0,0,0,0,0,0,0,0,0,0,0,0,0,0,0,0,0,0,0,0,0,0,0,0,0,0,0,0],"sum_hessian":[1.12693305E5,5.0699277E4,6.1994027E4,6.941768E2,5.0005098E4,5.359481E4,8.399216E3,5.2599243E2,1.6818443E2,4.9788656E4,2.164439E2,1.6684144E3,5.1926395E4,3.2470066E3,5.1522095E3,1.4514685E2,2.3037582E1,4.961353E4,1.7512366E2,1.1119775E3,5.564369E2,5.114394E4,7.824527E2,2.720907E3,5.2609955E2,1.7832955E3,3.3689138E3,2.2392502E0,1.429076E2,4.5203668E4,4.4098633E3,1.606578E2,9.513197E2,6.5061587E3,4.4637785E4,4.7897772E2,3.0347495E2,1.9796375E3,7.412696E2,3.7500723E2,1.5109232E2,1.0409259E3,7.4236957E2,8.862621E2,2.4826519E3,4.4683967E0,4.51992E4,4.2670356E3,1.4282722E2,6.3383526E1,8.8793616E2,2.733928E3,3.7722307E3,4.0908617E4,3.7291667E3,4.4479556E2,3.4182186E1,1.9459563E3,3.368116E1,2.7458856E2,4.6668103E2,8.184719E0,1.429076E2,9.2230585E2,1.18620094E2,1.5129126E2,5.910783E2,3.9014352E2,4.961186E2],"tree_param":{"num_deleted":"0","num_feature":"31","num_nodes":"69","size_leaf_vector":"1"}},{"base_weights":[7.040435E-6,1.5689719E0,-1.2798183E0,1.6748264E0,6.975224E-1,-1.48246E0,-2.5851265E-1,-1.6331102E-1,1.6773078E0,-6.165269E-2,1.5512935E0,-1.5164524E0,2.6091594E-1,6.678129E-1,-1.0050714E0,1.6784872E0,-1.5832093E-1,5.1904345E-1,-1.8688035E0,1.6252178E0,-2.0160763E-1,-1.5623789E0,-4.592393E-1,1.1112661E0,-1.6856894E-1,1.2225487E0,-4.45585E-1,-1.5670699E0,-2.78198E-2,-1.4414948E-1,1.6788824E0,1.1141069E0,-1.738149E-1,-1.6772869E-1,-1.9748497E0,-1.8883274E-1,1.6657258E0,-1.1416669E0,-1.6327865E0,1.449342E0,-1.3659054E0,-1.7049257E-1,1.4955972E0,1.4608396E0,-1.6975813E-1,9.1974044E-1,-1.239139E0,-1.7069845E-1,-4.809129E-1,-1.7073373E-1,6.0045755E-1,1.6790639E-1,-1.622726E-1,-1.7595321E-1,1.3759804E-1,-2.009619E-1,-1.6485436E-1,1.6928482E-1,-1.9718392E-1,-1.799897E-2,-1.5738201E-1,-1.2560563E-1,-1.684651E-1,-1.6823329E-1,1.8057923E-1,1.3349053E-1,-1.705889E-1,1.6269724E-1,-1.7289469E-1,-1.7261833E-1,1.5488021E-1,-1.7669608E-1,1.4026575E-1,9.427287E-2,-1.7725758E-1,1.3843097E-1,-1.6920774E-1,-1.6942939E-1,9.619657E-2],"categories":[],"categories_nodes":[],"categories_segments":[],"categories_sizes":[],"default_left":[0,0,0,0,0,0,0,0,0,0,0,0,0,0,0,0,0,0,0,0,0,0,0,0,0,0,0,0,0,0,0,0,0,0,0,0,0,0,0,0,0,0,0,0,0,0,0,0,0,0,0,0,0,0,0,0,0,0,0,0,0,0,0,0,0,0,0,0,0,0,0,0,0,0,0,0,0,0,0],"id":2,"left_children":[1,3,5,7,9,11,13,-1,15,17,19,21,23,25,27,29,-1,31,33,35,-1,37,39,41,-1,43,45,47,49,-1,51,53,-1,-1,55,-1,57,59,61,63,65,-1,67,69,-1,71,73,-1,75,-1,77,-1,-1,-1,-1,-1,-1,-1,-1,-1,-1,-1,-1,-1,-1,-1,-1,-1,-1,-1,-1,-1,-1,-1,-1,-1,-1,-1,-1],"loss_changes":[2.2099695E5,4.559867E3,1.2544297E4,3.6464062E2,3.4723765E3,2.9977578E3,6.9416597E3,0E0,1.720625E2,2.9777278E3,6.6823535E2,2.4081172E3,1.6044846E3,2.7674006E3,3.052516E3,5.6703125E1,0E0,2.886488E3,1.0702148E1,3.548164E2,0E0,1.4065E3,3.5785745E3,7.3251306E2,0E0,2.0832212E3,1.6159873E3,5.3543555E2,2.1434336E3,0E0,2.9117188E1,1.2818193E3,0E0,0E0,1.6617432E0,0E0,2.4438672E2,2.8338506E3,7.9364844E2,7.4663E2,1.2893921E3,0E0,2.5443335E2,7.778623E2,0E0,7.14042E2,1.0992463E3,0E0,9.1518726E2,0E0,1.2280088E3,0E0,0E0,0E0,0E0,0E0,0E0,0E0,0E0,0E0,0E0,0E0,0E0,0E0,0E0,0E0,0E0,0E0,0E0,0E0,0E0,0E0,0E0,0E0,0E0,0E0,0E0,0E0,0E0],"parents":[2147483647,0,0,1,1,2,2,3,3,4,4,5,5,6,6,8,8,9,9,10,10,11,11,12,12,13,13,14,14,15,15,17,17,18,18,19,19,21,21,22,22,23,23,25,25,26,26,27,27,28,28,30,30,31,31,34,34,36,36,37,37,38,38,39,39,40,40,42,42,43,43,45,45,46,46,48,48,50,50],"right_children":[2,4,6,8,10,12,14,-1,16,18,20,22,24,26,28,30,-1,32,34,36,-1,38,40,42,-1,44,46,48,50,-1,52,54,-1,-1,56,-1,58,60,62,64,66,-1,68,70,-1,72,74,-1,76,-1,78,-1,-1,-1,-1,-1,-1,-1,-1,-1,-1,-1,-1,-1,-1,-1,-1,-1,-1,-1,-1,-1,-1,-1,-1,-1,-1,-1,-1],"split_conditions":[-1.7859976E0,-1.4160796E0,1.3935225E0,-4.9830067E-1,1.8959074E0,2.4990346E0,-5.575814E-1,-1.6331102E-1,5.767415E-1,2.2414032E-2,2.0826507E-1,6.777285E-1,-3.3360067E-1,2.7736297E-1,9.419254E-2,-7.0277715E-1,-1.5832093E-1,-1.1814422E-1,-4.8604634E-1,5.4089034E-1,-2.0160763E-1,-7.287119E-1,-1.3385137E0,2.231292E-1,-1.6856894E-1,1.2776982E0,3.99E0,1.2368379E0,1.3566162E-1,-1.4414948E-1,2.1790798E0,-3.2300657E-1,-1.738149E-1,-1.6772869E-1,4.7627756E-1,-1.8883274E-1,2.0129874E0,-4.254906E-1,1.29E0,3.8237402E-1,-1.8650155E0,-1.7049257E-1,-2.625529E-1,-1.5378519E0,-1.6975813E-1,1.1028273E0,-1.0037454E0,-1.7069845E-1,1.2608807E0,-1.7073373E-1,-1.1522684E-1,1.6790639E-1,-1.622726E-1,-1.7595321E-1,1.3759804E-1,-2.009619E-1,-1.6485436E-1,1.6928482E-1,-1.9718392E-1,-1.799897E-2,-1.5738201E-1,-1.2560563E-1,-1.684651E-1,-1.6823329E-1,1.8057923E-1,1.3349053E-1,-1.705889E-1,1.6269724E-1,-1.7289469E-1,-1.7261833E-1,1.5488021E-1,-1.7669608E-1,1.4026575E-1,9.427287E-2,-1.7725758E-1,1.3843097E-1,-1.6920774E-1,-1.6942939E-1,9.619657E-2],"split_indices":[14,12,4,4,4,7,12,0,10,27,23,21,26,14,28,11,0,26,4,18,0,19,13,15,0,3,29,12,24,0,7,27,0,0,26,0,2,14,29,19,25,0,13,11,0,2,24,0,12,0,23,0,0,0,0,0,0,0,0,0,0,0,0,0,0,0,0,0,0,0,0,0,0,0,0,0,0,0,0],"split_type":[0,0,0,0,0,0,0,0,0,0,0,0,0,0,0,0,0,0,0,0,0,0,0,0,0,0,0,0,0,0,0,0,0,0,0,0,0,0,0,0,0,0,0,0,0,0,0,0,0,0,0,0,0,0,0,0,0,0,0,0,0,0,0,0,0,0,0,0,0,0,0,0,0,0,0,0,0,0,0],"sum_hessian":[1.1005619E5,4.9442887E4,6.06133E4,4.408677E4,5.35612E3,5.057754E4,1.0035763E4,3.2555058E1,4.4054215E4,2.8356138E3,2.520506E3,4.9610367E4,9.67172E2,4.478711E3,5.557052E3,4.403877E4,1.5443873E1,2.1465654E3,6.890483E2,2.4698691E3,5.0637043E1,4.7544504E4,2.0658633E3,6.734242E2,2.937478E2,2.9892559E3,1.4894552E3,3.527723E3,2.0293287E3,5.1144233E0,4.4033656E4,1.6991302E3,4.474352E2,2.5155803E2,4.3749023E2,2.763093E1,2.4422383E3,6.818514E3,4.072599E4,6.6512994E2,1.4007333E3,8.045476E1,5.929694E2,2.76419E3,2.2506607E2,5.474307E2,9.4202454E2,3.1246467E3,4.0307617E2,5.519998E2,1.4773289E3,4.4031727E4,1.9291E0,1.4143121E2,1.5576991E3,3.9070093E2,4.6789333E1,2.4246938E3,1.7544352E1,2.1145007E3,4.7040137E3,4.9313247E3,3.5794664E4,6.7589294E1,5.9754065E2,1.5628525E2,1.244448E3,5.702323E2,2.2737106E1,7.374278E1,2.690447E3,8.3000404E1,4.644303E2,1.8491528E2,7.5710925E2,1.586336E2,2.4444255E2,2.005578E2,1.2767711E3],"tree_param":{"num_deleted":"0","num_feature":"31","num_nodes":"79","size_leaf_vector":"1"}},{"base_weights":[2.1283984E-5,1.4684695E0,-1.191996E0,1.5693263E0,6.4655286E-1,-1.381776E0,-2.4027587E-1,-1.531503E-1,1.5716566E0,-5.7334907E-2,1.4430931E0,-5.889289E-2,-1.4211934E0,6.1748946E-1,-9.340876E-1,1.5727668E0,-1.4856438E-1,4.797438E-1,-1.7226856E0,1.5126234E0,-1.8335354E-1,-1.6084021E-1,1.0891585E0,-1.4460129E0,1.8076876E-1,1.1308202E0,-4.1267374E-1,-1.4647056E0,-2.6470438E-2,-1.3539538E-1,1.5731422E0,1.0281916E0,-1.6218679E-1,-1.571853E-1,-1.8034786E0,1.5518763E0,-1.6948105E-1,-1.573636E-1,1.4509909E0,-1.1279222E0,-1.5434902E0,1.2452804E0,-1.575108E-1,1.3502526E0,-1.5882775E-1,8.759255E-1,-1.169382E0,-1.5966608E-1,-4.4729358E-1,-1.5967248E-1,5.474509E-1,1.5733202E-1,-1.4904474E-1,-5.2906808E-2,1.4731087E-1,-1.898063E-1,-1.7180769E-1,-2.0996483E-1,1.5789111E-1,1.5642951E-1,-1.5886523E-1,-1.381706E-1,3.604135E-3,-1.5577558E-1,-1.2214614E-2,-1.6151287E-1,1.4773647E-1,1.4308761E-1,-1.7219634E-1,1.4588284E-1,-1.6186498E-1,1.324663E-1,-1.6714267E-1,1.2712143E-1,-1.5839212E-1,-1.585561E-1,8.7446265E-2],"categories":[],"categories_nodes":[],"categories_segments":[],"categories_sizes":[],"default_left":[0,0,0,0,0,0,0,0,0,0,0,0,0,0,0,0,0,0,0,0,0,0,0,0,0,0,0,0,0,0,0,0,0,0,0,0,0,0,0,0,0,0,0,0,0,0,0,0,0,0,0,0,0,0,0,0,0,0,0,0,0,0,0,0,0,0,0,0,0,0,0,0,0,0,0,0,0],"id":3,"left_children":[1,3,5,7,9,11,13,-1,15,17,19,21,23,25,27,29,-1,31,33,35,-1,-1,37,39,41,43,45,47,49,-1,51,53,-1,-1,55,57,-1,-1,59,61,63,65,-1,67,-1,69,71,-1,73,-1,75,-1,-1,-1,-1,-1,-1,-1,-1,-1,-1,-1,-1,-1,-1,-1,-1,-1,-1,-1,-1,-1,-1,-1,-1,-1,-1],"loss_changes":[1.8610783E5,3.9479375E3,1.0599141E4,3.09E2,2.9202747E3,2.5512344E3,5.8077266E3,0E0,1.4624219E2,2.474757E3,5.594429E2,2.5220151E3,1.8893281E3,2.3081934E3,2.5981152E3,4.8695312E1,0E0,2.4132258E3,5.3875732E0,3.0393408E2,0E0,0E0,7.869344E2,1.4489844E3,1.3585359E3,1.7401365E3,1.4169451E3,4.563457E2,1.7955116E3,0E0,2.5453125E1,1.1508038E3,0E0,0E0,2.3327637E-1,2.3676074E2,0E0,0E0,2.495896E2,3.243E3,7.2589844E2,3.0271326E2,0E0,6.7021875E2,0E0,7.843805E2,1.1482598E3,0E0,7.681894E2,0E0,1.01913947E3,0E0,0E0,0E0,0E0,0E0,0E0,0E0,0E0,0E0,0E0,0E0,0E0,0E0,0E0,0E0,0E0,0E0,0E0,0E0,0E0,0E0,0E0,0E0,0E0,0E0,0E0],"parents":[2147483647,0,0,1,1,2,2,3,3,4,4,5,5,6,6,8,8,9,9,10,10,11,11,12,12,13,13,14,14,15,15,17,17,18,18,19,19,22,22,23,23,24,24,25,25,26,26,27,27,28,28,30,30,31,31,34,34,35,35,38,38,39,39,40,40,41,41,43,43,45,45,46,46,48,48,50,50],"right_children":[2,4,6,8,10,12,14,-1,16,18,20,22,24,26,28,30,-1,32,34,36,-1,-1,38,40,42,44,46,48,50,-1,52,54,-1,-1,56,58,-1,-1,60,62,64,66,-1,68,-1,70,72,-1,74,-1,76,-1,-1,-1,-1,-1,-1,-1,-1,-1,-1,-1,-1,-1,-1,-1,-1,-1,-1,-1,-1,-1,-1,-1,-1,-1,-1],"split_conditions":[-1.7859976E0,-1.4160796E0,1.3935225E0,-4.9830067E-1,1.8959074E0,-9.853448E-1,-5.575814E-1,-1.531503E-1,5.767415E-1,2.2414032E-2,2.0826507E-1,-2.027623E0,2.4990346E0,2.7736297E-1,9.419254E-2,-7.0277715E-1,-1.4856438E-1,-1.1814422E-1,-4.8604634E-1,5.472968E-1,-1.8335354E-1,-1.6084021E-1,-2.1592973E-1,-4.6571037E-1,-5.366979E-1,1.2776982E0,-7.4005884E-1,1.2368379E0,1.3566162E-1,-1.3539538E-1,2.1790798E0,-2.005085E-2,-1.6218679E-1,-1.571853E-1,5.2214855E-1,-6.626826E-2,-1.6948105E-1,-1.573636E-1,7.24873E-2,7.413282E-1,9.4908E2,2.8455114E-1,-1.575108E-1,1.1948481E0,-1.5882775E-1,-4.7261924E-2,-2.450811E0,-1.5966608E-1,1.2608807E0,-1.5967248E-1,-1.1522684E-1,1.5733202E-1,-1.4904474E-1,-5.2906808E-2,1.4731087E-1,-1.898063E-1,-1.7180769E-1,-2.0996483E-1,1.5789111E-1,1.5642951E-1,-1.5886523E-1,-1.381706E-1,3.604135E-3,-1.5577558E-1,-1.2214614E-2,-1.6151287E-1,1.4773647E-1,1.4308761E-1,-1.7219634E-1,1.4588284E-1,-1.6186498E-1,1.324663E-1,-1.6714267E-1,1.2712143E-1,-1.5839212E-1,-1.585561E-1,8.7446265E-2],"split_indices":[14,12,4,4,4,20,12,0,10,27,23,1,7,14,28,11,0,26,4,10,0,0,4,14,26,3,7,12,24,0,7,27,0,0,15,11,0,0,6,4,29,15,0,1,0,18,19,0,12,0,23,0,0,0,0,0,0,0,0,0,0,0,0,0,0,0,0,0,0,0,0,0,0,0,0,0,0],"split_type":[0,0,0,0,0,0,0,0,0,0,0,0,0,0,0,0,0,0,0,0,0,0,0,0,0,0,0,0,0,0,0,0,0,0,0,0,0,0,0,0,0,0,0,0,0,0,0,0,0,0,0,0,0,0,0,0,0,0,0,0,0,0,0,0,0,0,0,0,0,0,0,0,0,0,0,0,0],"sum_hessian":[1.06320086E5,4.7636438E4,5.8683645E4,4.2429086E4,5.207352E3,4.8926824E4,9.756822E3,3.1369762E1,4.2397715E4,2.7649475E3,2.4424045E3,1.4157408E3,4.7511082E4,4.362964E3,5.393859E3,4.2382812E4,1.4905233E1,2.091233E3,6.737146E2,2.3921807E3,5.022398E1,6.023527E2,8.133882E2,4.6786312E4,7.2477026E2,2.9118767E3,1.451087E3,3.403478E3,1.990381E3,4.972396E0,4.237784E4,1.658843E3,4.3238974E2,2.4213232E2,4.3158224E2,2.3637688E3,2.841178E1,9.6903984E1,7.164842E2,1.0977343E4,3.580897E4,4.5139804E2,2.733722E2,2.6949004E3,2.1697632E2,5.3680457E2,9.1428253E2,3.012232E3,3.912462E2,5.322788E2,1.4581022E3,4.2375863E4,1.9762449E0,3.685806E2,1.2902625E3,1.9471083E2,2.3687141E2,1.6808636E1,2.3469602E3,6.912046E2,2.527961E1,9.01219E3,1.965153E3,3.5453043E4,3.5592413E2,3.3429123E1,4.1796893E2,2.6265078E3,6.8392586E1,4.3546533E2,1.0133921E2,1.5292873E2,7.613538E2,1.5570772E2,2.3553848E2,1.933144E2,1.2647877E3],"tree_param":{"num_deleted":"0","num_feature":"31","num_nodes":"77","size_leaf_vector":"1"}},{"base_weights":[6.617859E-5,1.3880706E0,-1.1200063E0,1.4852352E0,6.0491925E-1,-1.2992914E0,-2.253879E-1,-1.4495333E-1,1.4874462E0,-5.3545676E-2,1.3566023E0,-1.3468161E0,-3.1383362E-1,5.7625425E-1,-8.755976E-1,1.4885024E0,-1.4059483E-1,4.4656977E-1,-1.6098112E0,1.4225372E0,-1.6948362E-1,-1.3711605E0,5.634844E-1,1.3140751E0,-1.2346728E0,1.0543987E0,-3.8663962E-1,-1.3831042E0,-2.5503397E-2,-1.2802076E-1,1.488863E0,9.5420885E-1,-1.5298449E-1,-1.4877807E-1,-1.6732828E-1,-1.6705418E-1,1.4593502E0,-9.3012804E-1,-1.4383353E0,-1.516606E-1,1.2608998E0,1.5620351E0,-1.5951711E-1,-1.5224795E-1,1.1432143E0,1.2579013E0,-1.5013373E-1,8.177854E-1,-1.0962552E0,-1.5108262E-1,-4.2477545E-1,-1.508897E-1,5.009645E-1,-1.6161197E-1,1.4890514E-1,-1.6942821E-1,1.1867999E-1,1.4846408E-1,-1.7484514E-1,-1.1598631E-1,8.8753186E-2,-9.7538605E-2,-1.4755444E-1,1.4678133E-1,-1.4863276E-1,-1.495099E-1,1.6759942E-1,-1.418131E-1,1.512621E-1,-1.626256E-1,1.3388945E-1,1.3600561E-1,-1.525754E-1,1.22640826E-1,-1.5706871E-1,1.4153846E-1,-1.507593E-1,-6.97258E-2,1.0510075E-1],"categories":[],"categories_nodes":[],"categories_segments":[],"categories_sizes":[],"default_left":[0,0,0,0,0,0,0,0,0,0,0,0,0,0,0,0,0,0,0,0,0,0,0,0,0,0,0,0,0,0,0,0,0,0,0,0,0,0,0,0,0,0,0,0,0,0,0,0,0,0,0,0,0,0,0,0,0,0,0,0,0,0,0,0,0,0,0,0,0,0,0,0,0,0,0,0,0,0,0],"id":4,"left_children":[1,3,5,7,9,11,13,-1,15,17,19,21,23,25,27,29,-1,31,33,35,-1,37,39,41,43,45,47,49,51,-1,53,55,-1,-1,-1,-1,57,59,61,-1,63,65,-1,-1,67,69,-1,71,73,-1,75,-1,77,-1,-1,-1,-1,-1,-1,-1,-1,-1,-1,-1,-1,-1,-1,-1,-1,-1,-1,-1,-1,-1,-1,-1,-1,-1,-1],"loss_changes":[1.5828981E5,3.4591016E3,9.037203E3,2.64625E2,2.4849453E3,2.197914E3,4.904325E3,0E0,1.25625E2,2.0843308E3,4.7407422E2,2.08325E3,3.2408306E3,1.9405406E3,2.241268E3,4.225E1,0E0,2.0349583E3,2.5551758E0,2.637876E2,0E0,1.308625E3,8.2037225E2,5.6601685E2,9.466328E2,1.4665051E3,1.196556E3,3.9752393E2,1.5182172E3,0E0,2.6046875E1,9.957792E2,0E0,0E0,0E0,0E0,1.8665625E2,2.4427607E3,6.595156E2,0E0,2.426706E2,2.5346179E2,0E0,0E0,1.4372917E2,6.1160596E2,0E0,6.6192377E2,9.724457E2,0E0,7.671797E2,0E0,9.464057E2,0E0,0E0,0E0,0E0,0E0,0E0,0E0,0E0,0E0,0E0,0E0,0E0,0E0,0E0,0E0,0E0,0E0,0E0,0E0,0E0,0E0,0E0,0E0,0E0,0E0,0E0],"parents":[2147483647,0,0,1,1,2,2,3,3,4,4,5,5,6,6,8,8,9,9,10,10,11,11,12,12,13,13,14,14,15,15,17,17,18,18,19,19,21,21,22,22,23,23,24,24,25,25,26,26,27,27,28,28,30,30,31,31,36,36,37,37,38,38,40,40,41,41,44,44,45,45,47,47,48,48,50,50,52,52],"right_children":[2,4,6,8,10,12,14,-1,16,18,20,22,24,26,28,30,-1,32,34,36,-1,38,40,42,44,46,48,50,52,-1,54,56,-1,-1,-1,-1,58,60,62,-1,64,66,-1,-1,68,70,-1,72,74,-1,76,-1,78,-1,-1,-1,-1,-1,-1,-1,-1,-1,-1,-1,-1,-1,-1,-1,-1,-1,-1,-1,-1,-1,-1,-1,-1,-1,-1],"split_conditions":[-1.7859976E0,-1.4160796E0,1.3935225E0,-4.9830067E-1,1.8959074E0,6.777285E-1,-5.575814E-1,-1.4495333E-1,5.767415E-1,2.2414032E-2,2.0826507E-1,3.0202103E0,-1.3385137E0,2.7736297E-1,9.419254E-2,-7.0277715E-1,-1.4059483E-1,-1.1814422E-1,-4.8604634E-1,5.4089034E-1,-1.6948362E-1,-8.069166E-1,6.8208414E-1,-7.0460014E-2,2.596892E0,1.2776982E0,-7.4005884E-1,1.1066625E0,1.3566162E-1,-1.2802076E-1,5.761E3,-1.8385863E-1,-1.5298449E-1,-1.4877807E-1,-1.6732828E-1,-1.6705418E-1,2.0129874E0,1.4751992E0,-1.0702741E0,-1.516606E-1,7.42854E-1,-2.1592973E-1,-1.5951711E-1,-1.5224795E-1,-5.5618393E-1,-1.5378519E0,-1.5013373E-1,-4.7261924E-2,-2.450811E0,-1.5108262E-1,-1.1865485E0,-1.508897E-1,7.9344E4,-1.6161197E-1,1.4890514E-1,-1.6942821E-1,1.1867999E-1,1.4846408E-1,-1.7484514E-1,-1.1598631E-1,8.8753186E-2,-9.7538605E-2,-1.4755444E-1,1.4678133E-1,-1.4863276E-1,-1.495099E-1,1.6759942E-1,-1.418131E-1,1.512621E-1,-1.626256E-1,1.3388945E-1,1.3600561E-1,-1.525754E-1,1.22640826E-1,-1.5706871E-1,1.4153846E-1,-1.507593E-1,-6.97258E-2,1.0510075E-1],"split_indices":[14,12,4,4,4,21,12,0,10,27,23,7,13,14,28,11,0,26,4,18,0,14,19,25,14,3,7,11,24,0,0,28,0,0,0,0,2,11,19,0,6,4,0,0,3,11,0,18,19,0,15,0,0,0,0,0,0,0,0,0,0,0,0,0,0,0,0,0,0,0,0,0,0,0,0,0,0,0,0],"split_type":[0,0,0,0,0,0,0,0,0,0,0,0,0,0,0,0,0,0,0,0,0,0,0,0,0,0,0,0,0,0,0,0,0,0,0,0,0,0,0,0,0,0,0,0,0,0,0,0,0,0,0,0,0,0,0,0,0,0,0,0,0,0,0,0,0,0,0,0,0,0,0,0,0,0,0,0,0,0,0],"sum_hessian":[1.0181399E5,4.5468617E4,5.6345375E4,4.0449234E4,5.0193813E3,4.6938305E4,9.40707E3,2.9958134E1,4.0419277E4,2.6760894E3,2.343292E3,4.4778453E4,2.1598518E3,4.2129937E3,5.1940767E3,4.040501E4,1.4264605E1,2.0257993E3,6.5029E2,2.294252E3,4.9039913E1,4.4215266E4,5.631878E2,7.801803E2,1.3796715E3,2.8150356E3,1.397958E3,3.252003E3,1.942074E3,4.799386E0,4.040021E4,1.6122202E3,4.135791E2,2.3086638E2,4.194236E2,2.6462448E1,2.2677896E3,5.846333E3,3.8368934E4,1.4111823E2,4.2206955E2,7.193334E2,6.0846928E1,1.2310337E3,1.4863791E2,2.6078882E3,2.071474E2,5.1822546E2,8.797326E2,2.8690513E3,3.8295175E2,5.082227E2,1.4338512E3,1.9318721E0,4.039828E4,1.2964792E2,1.4825723E3,2.250583E3,1.7206623E1,5.190646E3,6.5568695E2,2.856459E3,3.5512473E4,3.9294012E2,2.9129433E1,2.541505E1,6.9391833E2,1.8377234E1,1.3026068E2,7.0713455E1,2.5371748E3,4.2118686E2,9.70386E1,1.4894781E2,7.307848E2,1.4175076E2,2.4120099E2,4.5103714E2,9.828141E2],"tree_param":{"num_deleted":"0","num_feature":"31","num_nodes":"79","size_leaf_vector":"1"}},{"base_weights":[1.13338196E-4,1.3224393E0,-1.0594616E0,1.4168646E0,5.6998503E-1,-1.319673E0,-4.9503645E-1,-1.3820778E-1,1.4189796E0,-5.0882984E-2,1.2860086E0,-1.3733487E0,-6.2763757E-1,3.9300603E-1,-9.2180616E-1,1.4199932E0,-1.339554E-1,4.1739368E-1,-1.5203798E0,1.3489599E0,-1.5859906E-1,-1.3895937E0,1.3184E-1,4.4395944E-1,-1.4560664E-1,9.1529775E-1,-5.3489023E-1,2.8619045E-2,-1.1362208E0,-1.2169951E-1,1.4203427E0,8.892223E-1,-1.4554386E-1,-1.419409E-1,-1.5714893E-1,-1.7868273E-1,1.3830702E0,-8.795259E-1,-1.4308983E0,-1.4416754E-1,2.931186E0,-7.6689917E-1,1.4050741E0,1.1308389E0,-1.4456598E-1,7.688466E-1,-1.1832166E0,-1.4546537E-1,4.7605723E-1,-1.2511641E0,7.57473E-1,1.4205322E-1,-1.4903395E-1,-5.0848167E-2,1.3096258E-1,1.4111733E-1,-1.546437E-1,-1.4509304E-1,3.3354673E-3,-1.4474452E-1,-1.12447105E-1,-1.2445612E-1,3.1400168E-1,-1.4622174E-1,9.606066E-2,1.7662118E-1,-1.4722727E-1,1.2244564E-1,-1.588825E-1,1.27866E-1,-1.4499216E-1,1.1089303E-1,-1.4683962E-1,8.547899E-2,-1.601414E-1,1.2631826E-1,-1.3107963E-1,-1.5001418E-1,1.4005171E-1],"categories":[],"categories_nodes":[],"categories_segments":[],"categories_sizes":[],"default_left":[0,0,0,0,0,0,0,0,0,0,0,0,0,0,0,0,0,0,0,0,0,0,0,0,0,0,0,0,0,0,0,0,0,0,0,0,0,0,0,0,0,0,0,0,0,0,0,0,0,0,0,0,0,0,0,0,0,0,0,0,0,0,0,0,0,0,0,0,0,0,0,0,0,0,0,0,0,0,0],"id":5,"left_children":[1,3,5,7,9,11,13,-1,15,17,19,21,23,25,27,29,-1,31,33,35,-1,37,39,41,-1,43,45,47,49,-1,51,53,-1,-1,-1,-1,55,57,59,-1,61,63,65,67,-1,69,71,-1,73,75,77,-1,-1,-1,-1,-1,-1,-1,-1,-1,-1,-1,-1,-1,-1,-1,-1,-1,-1,-1,-1,-1,-1,-1,-1,-1,-1,-1,-1],"loss_changes":[1.3567819E5,3.0598672E3,7.8949844E3,2.2853906E2,2.1360217E3,1.3659141E3,6.430002E3,0E0,1.0880469E2,1.7720906E3,4.0556714E2,8.351094E2,2.3534622E3,2.6695415E3,2.3351748E3,3.6976562E1,0E0,1.7270626E3,9.8083496E-1,2.360852E2,0E0,7.104453E2,1.6142042E3,1.3467938E3,0E0,1.7950608E3,1.6779945E3,1.401195E3,2.0360518E3,0E0,2.3203125E1,9.1767224E2,0E0,0E0,0E0,0E0,1.8010449E2,1.3214451E3,1.5682031E2,0E0,1.1888562E2,6.1680444E2,6.728345E2,8.2432275E2,0E0,7.4794836E2,8.6810645E2,0E0,1.277523E3,1.323335E3,7.79728E2,0E0,0E0,0E0,0E0,0E0,0E0,0E0,0E0,0E0,0E0,0E0,0E0,0E0,0E0,0E0,0E0,0E0,0E0,0E0,0E0,0E0,0E0,0E0,0E0,0E0,0E0,0E0,0E0],"parents":[2147483647,0,0,1,1,2,2,3,3,4,4,5,5,6,6,8,8,9,9,10,10,11,11,12,12,13,13,14,14,15,15,17,17,18,18,19,19,21,21,22,22,23,23,25,25,26,26,27,27,28,28,30,30,31,31,36,36,37,37,38,38,40,40,41,41,42,42,43,43,45,45,46,46,48,48,49,49,50,50],"right_children":[2,4,6,8,10,12,14,-1,16,18,20,22,24,26,28,30,-1,32,34,36,-1,38,40,42,-1,44,46,48,50,-1,52,54,-1,-1,-1,-1,56,58,60,-1,62,64,66,68,-1,70,72,-1,74,76,78,-1,-1,-1,-1,-1,-1,-1,-1,-1,-1,-1,-1,-1,-1,-1,-1,-1,-1,-1,-1,-1,-1,-1,-1,-1,-1,-1,-1],"split_conditions":[-1.7859976E0,-1.4160796E0,7.413282E-1,-4.9830067E-1,1.8959074E0,3.0477E2,-5.575814E-1,-1.3820778E-1,5.767415E-1,2.2414032E-2,2.0826507E-1,1.2022438E0,-3.3360067E-1,3.4057415E-1,1.54E0,-7.0277715E-1,-1.339554E-1,-1.1814422E-1,-4.8604634E-1,-6.626826E-2,-1.5859906E-1,-1.3300555E0,1.3465661E0,4.331174E-2,-1.4560664E-1,1.2776982E0,-7.4005884E-1,9.92398E-3,1.6188225E0,-1.2169951E-1,2.1790798E0,-2.005085E-2,-1.4554386E-1,-1.419409E-1,-1.5714893E-1,-1.7868273E-1,5.472968E-1,3.48938E-1,1.3500417E0,-1.4416754E-1,1.0524671E0,-4.6149544E-2,7.24873E-2,1.2456738E0,-1.4456598E-1,-4.7261924E-2,-2.450811E0,-1.4546537E-1,4.0059403E-1,-2.150176E0,2.4474049E0,1.4205322E-1,-1.4903395E-1,-5.0848167E-2,1.3096258E-1,1.4111733E-1,-1.546437E-1,-1.4509304E-1,3.3354673E-3,-1.4474452E-1,-1.12447105E-1,-1.2445612E-1,3.1400168E-1,-1.4622174E-1,9.606066E-2,1.7662118E-1,-1.4722727E-1,1.2244564E-1,-1.588825E-1,1.27866E-1,-1.4499216E-1,1.1089303E-1,-1.4683962E-1,8.547899E-2,-1.601414E-1,1.2631826E-1,-1.3107963E-1,-1.5001418E-1,1.4005171E-1],"split_indices":[14,12,4,4,4,29,12,0,10,27,23,26,26,14,29,11,0,26,4,11,0,6,12,4,0,3,7,28,17,0,7,27,0,0,0,0,10,18,16,0,19,2,6,1,0,18,19,0,16,16,4,0,0,0,0,0,0,0,0,0,0,0,0,0,0,0,0,0,0,0,0,0,0,0,0,0,0,0,0],"split_type":[0,0,0,0,0,0,0,0,0,0,0,0,0,0,0,0,0,0,0,0,0,0,0,0,0,0,0,0,0,0,0,0,0,0,0,0,0,0,0,0,0,0,0,0,0,0,0,0,0,0,0,0,0,0,0,0,0,0,0,0,0,0,0,0,0,0,0,0,0,0,0,0,0,0,0,0,0,0,0],"sum_hessian":[9.6834664E4,4.3076234E4,5.3758434E4,3.827254E4,4.803694E3,3.679422E4,1.6964213E4,2.840684E1,3.8244133E4,2.5733E3,2.2303938E3,3.4144883E4,2.649338E3,5.5063726E3,1.1457841E4,3.8230574E4,1.3560252E1,1.9519868E3,6.2131323E2,2.1830732E3,4.732044E1,3.378038E4,3.6450427E2,1.1553381E3,1.4939998E3,3.5232366E3,1.9831362E3,2.10923E3,9.34861E3,4.605702E0,3.822597E4,1.5595975E3,3.9238925E2,2.184732E2,4.0284003E2,2.2938457E1,2.1601348E3,2.5322358E3,3.1248143E4,2.3365279E2,1.3085149E2,5.113353E2,6.440028E2,3.228972E3,2.9426456E2,6.585847E2,1.3245515E3,4.882879E2,1.6209421E3,8.813961E3,5.3464966E2,3.8223992E4,1.976275E0,3.6057935E2,1.1990182E3,2.1401228E3,2.0012163E1,1.5570398E3,9.75196E2,2.9643676E4,1.6044668E3,5.996033E0,1.2485545E2,3.6469836E2,1.4663692E2,5.7253033E2,7.147249E1,3.122053E3,1.0691903E2,5.35878E2,1.2270668E2,1.4624118E2,1.1783103E3,1.3714999E3,2.494423E2,2.0372807E2,8.610232E3,1.1823043E2,4.1641922E2],"tree_param":{"num_deleted":"0","num_feature":"31","num_nodes":"79","size_leaf_vector":"1"}},{"base_weights":[3.9605664E-5,1.267985E0,-1.0071489E0,1.3603834E0,5.404495E-1,-1.260027E0,-4.6629602E-1,-1.3256323E-1,1.3624203E0,-4.8177958E-2,1.2271376E0,-1.328145E0,-7.1953326E-1,3.6922553E-1,-8.673781E-1,1.3633995E0,-1.2832929E-1,3.9244387E-1,-1.4478773E0,1.2875636E0,-1.498426E-1,-1.3452724E0,9.882703E-2,-1.3059263E0,6.6767144E-1,1.2526317E0,-1.2325827E-1,2.4646705E-2,-1.0746177E0,-1.1619725E-1,1.3637409E0,8.3261746E-1,-1.3942383E-1,-1.3629161E-1,-1.4897381E-1,-1.6876166E-1,1.3213744E0,-3.1694213E-1,-1.3686736E0,-1.3791816E-1,2.376759E0,-1.4297839E-1,-1.3797085E-1,1.6923579E0,-7.716092E-1,-1.5887555E-1,1.3175892E0,-7.505542E-1,6.690045E-1,-1.3930778E-1,4.3006337E-1,-1.34418E0,-2.7984315E-1,-1.5994956E-1,1.3639452E-1,-1.5442815E-1,1.0585069E-1,-1.7509077E-1,1.3429771E-1,-1.3923384E-1,1.01930894E-1,-1.385454E-1,-1.07381485E-1,-1.230269E-1,2.5625297E-1,-1.3876389E-1,1.1150017E-1,-1.4241013E-1,2.1827558E-1,-1.429454E-1,1.20645046E-1,1.3596861E-1,-2.2260575E-1,-1.2306663E-1,9.083494E-2,9.648052E-2,-1.437178E-1,7.6774284E-2,-1.514111E-1,8.3763056E-2,-1.3995351E-1,7.331376E-2,-1.4329562E-1],"categories":[],"categories_nodes":[],"categories_segments":[],"categories_sizes":[],"default_left":[0,0,0,0,0,0,0,0,0,0,0,0,0,0,0,0,0,0,0,0,0,0,0,0,0,0,0,0,0,0,0,0,0,0,0,0,0,0,0,0,0,0,0,0,0,0,0,0,0,0,0,0,0,0,0,0,0,0,0,0,0,0,0,0,0,0,0,0,0,0,0,0,0,0,0,0,0,0,0,0,0,0,0],"id":6,"left_children":[1,3,5,7,9,11,13,-1,15,17,19,21,23,25,27,29,-1,31,33,35,-1,37,39,41,43,45,47,49,51,-1,53,55,-1,-1,-1,-1,57,59,61,-1,63,-1,65,67,69,-1,71,73,75,-1,77,79,81,-1,-1,-1,-1,-1,-1,-1,-1,-1,-1,-1,-1,-1,-1,-1,-1,-1,-1,-1,-1,-1,-1,-1,-1,-1,-1,-1,-1,-1,-1],"loss_changes":[1.1702081E5,2.7261953E3,6.983918E3,1.9873438E2,1.8484723E3,1.2801836E3,5.4530854E3,0E0,9.4921875E1,1.5197556E3,3.4955322E2,7.55375E2,3.1707173E3,2.296508E3,2.0324531E3,3.2570312E1,0E0,1.4751875E3,6.7871094E-2,2.1000317E2,0E0,7.343594E2,1.2403348E3,3.9607422E2,1.7098396E3,3.5081177E2,1.6851979E3,1.1924827E3,1.9109893E3,0E0,2.3953125E1,8.0938403E2,0E0,0E0,0E0,0E0,1.379331E2,9.7959595E2,1.4623438E2,0E0,1.0028381E2,0E0,4.145277E2,1.0377941E3,6.2952936E2,0E0,2.7865747E2,1.5083064E3,9.349574E2,0E0,1.0603126E3,8.0573926E2,2.6418555E3,0E0,0E0,0E0,0E0,0E0,0E0,0E0,0E0,0E0,0E0,0E0,0E0,0E0,0E0,0E0,0E0,0E0,0E0,0E0,0E0,0E0,0E0,0E0,0E0,0E0,0E0,0E0,0E0,0E0,0E0],"parents":[2147483647,0,0,1,1,2,2,3,3,4,4,5,5,6,6,8,8,9,9,10,10,11,11,12,12,13,13,14,14,15,15,17,17,18,18,19,19,21,21,22,22,23,23,24,24,25,25,26,26,27,27,28,28,30,30,31,31,36,36,37,37,38,38,40,40,42,42,43,43,44,44,46,46,47,47,48,48,50,50,51,51,52,52],"right_children":[2,4,6,8,10,12,14,-1,16,18,20,22,24,26,28,30,-1,32,34,36,-1,38,40,42,44,46,48,50,52,-1,54,56,-1,-1,-1,-1,58,60,62,-1,64,-1,66,68,70,-1,72,74,76,-1,78,80,82,-1,-1,-1,-1,-1,-1,-1,-1,-1,-1,-1,-1,-1,-1,-1,-1,-1,-1,-1,-1,-1,-1,-1,-1,-1,-1,-1,-1,-1,-1],"split_conditions":[-1.7859976E0,-1.4160796E0,7.413282E-1,-4.9830067E-1,1.8959074E0,1.0663408E0,-5.575814E-1,-1.3256323E-1,5.767415E-1,2.2414032E-2,2.0826507E-1,1.2022438E0,1.5378694E-1,-7.233957E-1,1.54E0,-7.0277715E-1,-1.2832929E-1,-1.1814422E-1,-4.8604634E-1,-1.2442464E-2,-1.498426E-1,-9.853448E-1,1.3465661E0,3.0202103E0,-7.0378727E-1,-9.959347E-1,5.47024E-1,9.92398E-3,5.5362684E-1,-1.1619725E-1,5.761E3,-3.2300657E-1,-1.3942383E-1,-1.3629161E-1,-1.4897381E-1,-1.6876166E-1,-6.626826E-2,-1.7444316E0,1.3500417E0,-1.3791816E-1,4.590445E-1,-1.4297839E-1,-7.6918113E-1,1.8E1,1.5944186E0,-1.5887555E-1,1.3126225E0,2.5466412E-1,4.9030712E-1,-1.3930778E-1,4.0059403E-1,-1.4909433E0,5.5887373E-3,-1.5994956E-1,1.3639452E-1,-1.5442815E-1,1.0585069E-1,-1.7509077E-1,1.3429771E-1,-1.3923384E-1,1.01930894E-1,-1.385454E-1,-1.07381485E-1,-1.230269E-1,2.5625297E-1,-1.3876389E-1,1.1150017E-1,-1.4241013E-1,2.1827558E-1,-1.429454E-1,1.20645046E-1,1.3596861E-1,-2.2260575E-1,-1.2306663E-1,9.083494E-2,9.648052E-2,-1.437178E-1,7.6774284E-2,-1.514111E-1,8.3763056E-2,-1.3995351E-1,7.331376E-2,-1.4329562E-1],"split_indices":[14,12,4,4,4,7,12,0,10,27,23,26,4,14,29,11,0,26,4,28,0,20,12,7,10,11,22,28,17,0,0,27,0,0,0,0,11,1,16,0,25,0,1,30,22,0,18,28,18,0,16,10,8,0,0,0,0,0,0,0,0,0,0,0,0,0,0,0,0,0,0,0,0,0,0,0,0,0,0,0,0,0,0],"split_type":[0,0,0,0,0,0,0,0,0,0,0,0,0,0,0,0,0,0,0,0,0,0,0,0,0,0,0,0,0,0,0,0,0,0,0,0,0,0,0,0,0,0,0,0,0,0,0,0,0,0,0,0,0,0,0,0,0,0,0,0,0,0,0,0,0,0,0,0,0,0,0,0,0,0,0,0,0,0,0,0,0,0,0],"sum_hessian":[9.163099E4,4.0564387E4,5.10666E4,3.599241E4,4.5719775E3,3.4796164E4,1.6270438E4,2.6781054E1,3.596563E4,2.462262E3,2.1097156E3,3.0900357E4,3.8958057E3,5.2772065E3,1.0993231E4,3.595281E4,1.28212E1,1.8732782E3,5.8898364E2,2.0644736E3,4.5241955E1,3.053393E4,3.6642776E2,2.7383296E3,1.1574761E3,1.8883622E3,3.3888445E3,2.0726733E3,8.920558E3,4.3994045E0,3.594841E4,1.5034233E3,3.698549E2,2.0548561E2,3.8349805E2,2.2648058E1,2.0418254E3,6.7970776E2,2.985422E4,2.2247324E2,1.4395451E2,2.475579E3,2.6275055E2,6.760154E2,4.8146063E2,4.1681057E1,1.8466812E3,1.8913604E3,1.4974841E3,4.6036407E2,1.6123093E3,6.660752E3,2.259806E3,1.9386792E0,3.594647E4,1.2997174E2,1.3734515E3,1.3697886E1,2.0281276E3,3.7659076E2,3.03117E2,2.8243207E4,1.6110151E3,6.7754807E0,1.3717903E2,1.3149493E2,1.3125562E2,9.165395E1,5.8436145E2,3.6151028E2,1.1995036E2,1.82561E3,2.107111E1,1.4670359E3,4.243245E2,1.3135464E3,1.8393777E2,1.3742278E3,2.3808156E2,1.6445982E2,6.4962925E3,1.2031943E3,1.0566117E3],"tree_param":{"num_deleted":"0","num_feature":"31","num_nodes":"83","size_leaf_vector":"1"}},{"base_weights":[-1.4867222E-4,1.2220763E0,-9.624312E-1,1.3131034E0,5.144078E-1,-1.2103505E0,-4.409959E-1,-1.2777126E-1,1.315076E0,-4.6464335E-2,1.1763276E0,-1.2779548E0,-6.8257916E-1,3.4595624E-1,-8.2211053E-1,1.3160275E0,-1.23489395E-1,3.6964333E-1,-1.3881257E-1,-1.4959936E-1,1.2358583E0,-1.2950056E0,8.5870795E-2,-1.2527418E0,6.0780466E-1,8.112004E-1,-4.980634E-1,2.1106604E-2,-1.0246931E0,-1.1134147E-1,1.316363E0,-8.364751E-1,9.701281E-1,-1.6762935E-1,1.2726308E0,-3.006872E-1,-1.3180476E0,-1.3294677E-1,2.053719E0,-1.3726838E-1,-1.3202682E-1,1.2391158E0,-1.3810015E-1,1.0047017E0,-1.3609956E-1,7.05739E-1,-1.1034248E0,3.8043872E-1,-1.4457093E0,-1.2930546E0,-2.610188E-1,1.3165717E-1,-1.4806257E-1,1.4275059E-1,-1.5241432E-1,1.1867265E-1,-1.3479237E-1,-1.6428341E-1,1.2971644E-1,-1.341462E-1,9.406192E-2,-1.01596825E-1,-1.3367859E-1,-1.1804527E-1,2.205808E-1,-1.336715E-1,1.0556169E-1,1.8434532E-1,-2.3207033E-2,-4.4969346E-2,1.1552756E-1,1.1686224E-1,-1.354046E-1,9.87309E-2,-1.3727625E-1,7.392626E-2,-1.4167331E-1,-1.3361229E-1,-1.520013E-1,7.66837E-2,-1.3479225E-1,6.589725E-2,-1.3762806E-1],"categories":[],"categories_nodes":[],"categories_segments":[],"categories_sizes":[],"default_left":[0,0,0,0,0,0,0,0,0,0,0,0,0,0,0,0,0,0,0,0,0,0,0,0,0,0,0,0,0,0,0,0,0,0,0,0,0,0,0,0,0,0,0,0,0,0,0,0,0,0,0,0,0,0,0,0,0,0,0,0,0,0,0,0,0,0,0,0,0,0,0,0,0,0,0,0,0,0,0,0,0,0,0],"id":7,"left_children":[1,3,5,7,9,11,13,-1,15,17,19,21,23,25,27,29,-1,31,-1,-1,33,35,37,39,41,43,45,47,49,-1,51,53,55,-1,57,59,61,-1,63,-1,65,67,-1,69,-1,71,73,75,77,79,81,-1,-1,-1,-1,-1,-1,-1,-1,-1,-1,-1,-1,-1,-1,-1,-1,-1,-1,-1,-1,-1,-1,-1,-1,-1,-1,-1,-1,-1,-1,-1,-1],"loss_changes":[1.0149091E5,2.4479531E3,6.2408633E3,1.7379297E2,1.6090178E3,1.1666289E3,4.666907E3,0E0,8.328516E1,1.3107697E3,3.1809595E2,6.7459766E2,2.735963E3,1.9941982E3,1.7907656E3,2.8882812E1,0E0,1.2988041E3,0E0,0E0,2.1043262E2,6.559453E2,1.00284485E3,3.4645264E2,1.4329839E3,1.3773267E3,1.316063E3,1.0713947E3,1.731916E3,0E0,2.1570312E1,9.3042053E2,6.025709E2,0E0,1.3956665E2,8.4116516E2,1.571211E2,0E0,7.6688416E1,0E0,3.5967932E2,7.702135E2,0E0,6.589016E2,0E0,5.7797485E2,6.7784924E2,1.0539202E3,1.2259521E0,7.079092E2,2.257311E3,0E0,0E0,0E0,0E0,0E0,0E0,0E0,0E0,0E0,0E0,0E0,0E0,0E0,0E0,0E0,0E0,0E0,0E0,0E0,0E0,0E0,0E0,0E0,0E0,0E0,0E0,0E0,0E0,0E0,0E0,0E0,0E0],"parents":[2147483647,0,0,1,1,2,2,3,3,4,4,5,5,6,6,8,8,9,9,10,10,11,11,12,12,13,13,14,14,15,15,17,17,20,20,21,21,22,22,23,23,24,24,25,25,26,26,27,27,28,28,30,30,31,31,32,32,34,34,35,35,36,36,38,38,40,40,41,41,43,43,45,45,46,46,47,47,48,48,49,49,50,50],"right_children":[2,4,6,8,10,12,14,-1,16,18,20,22,24,26,28,30,-1,32,-1,-1,34,36,38,40,42,44,46,48,50,-1,52,54,56,-1,58,60,62,-1,64,-1,66,68,-1,70,-1,72,74,76,78,80,82,-1,-1,-1,-1,-1,-1,-1,-1,-1,-1,-1,-1,-1,-1,-1,-1,-1,-1,-1,-1,-1,-1,-1,-1,-1,-1,-1,-1,-1,-1,-1,-1],"split_conditions":[-1.7859976E0,-1.4160796E0,7.413282E-1,-4.9830067E-1,1.8959074E0,1.0663408E0,-5.575814E-1,-1.2777126E-1,5.767415E-1,2.2414032E-2,5.4089034E-1,1.2022438E0,1.5378694E-1,3.4057415E-1,1.54E0,-7.0277715E-1,-1.23489395E-1,-2.005085E-2,-1.3881257E-1,-1.4959936E-1,-8.7419903E-1,-9.853448E-1,1.3465661E0,3.0202103E0,-2.625529E-1,1.2776982E0,-7.4005884E-1,-7.400794E-2,5.5362684E-1,-1.1134147E-1,2.1790798E0,-2.288321E0,-1.1814422E-1,-1.6762935E-1,-2.4201917E-2,-1.7444316E0,-1.5605403E0,-1.3294677E-1,4.590445E-1,-1.3726838E-1,8.8129526E-1,-7.0378727E-1,-1.3810015E-1,-1.1357255E0,-1.3609956E-1,-4.7261924E-2,-2.450811E0,4.0059403E-1,9.92398E-3,-1.4909433E0,5.5887373E-3,1.3165717E-1,-1.4806257E-1,1.4275059E-1,-1.5241432E-1,1.1867265E-1,-1.3479237E-1,-1.6428341E-1,1.2971644E-1,-1.341462E-1,9.406192E-2,-1.01596825E-1,-1.3367859E-1,-1.1804527E-1,2.205808E-1,-1.336715E-1,1.0556169E-1,1.8434532E-1,-2.3207033E-2,-4.4969346E-2,1.1552756E-1,1.1686224E-1,-1.354046E-1,9.87309E-2,-1.3727625E-1,7.392626E-2,-1.4167331E-1,-1.3361229E-1,-1.520013E-1,7.66837E-2,-1.3479225E-1,6.589725E-2,-1.3762806E-1],"split_indices":[14,12,4,4,4,7,12,0,10,27,18,26,4,14,29,11,0,27,0,0,22,20,12,7,13,3,7,9,17,0,7,5,26,0,28,1,13,0,25,0,15,10,0,11,0,18,19,16,28,10,8,0,0,0,0,0,0,0,0,0,0,0,0,0,0,0,0,0,0,0,0,0,0,0,0,0,0,0,0,0,0,0,0],"split_type":[0,0,0,0,0,0,0,0,0,0,0,0,0,0,0,0,0,0,0,0,0,0,0,0,0,0,0,0,0,0,0,0,0,0,0,0,0,0,0,0,0,0,0,0,0,0,0,0,0,0,0,0,0,0,0,0,0,0,0,0,0,0,0,0,0,0,0,0,0,0,0,0,0,0,0,0,0,0,0,0,0,0,0],"sum_hessian":[8.629056E4,3.801115E4,4.8279414E4,3.367827E4,4.3328804E3,3.2720805E4,1.5558609E4,2.5129486E1,3.365314E4,2.3459712E3,1.9869092E3,2.9004127E4,3.716677E3,5.076464E3,1.04821455E4,3.364107E4,1.2069293E1,1.7911744E3,5.5479675E2,4.277165E1,1.9441375E3,2.8646043E4,3.5808542E2,2.577725E3,1.1389518E3,3.2725781E3,1.8038859E3,2.0306776E3,8.451468E3,4.1867366E0,3.3636883E4,5.952259E2,1.1959485E3,2.3687038E1,1.9204504E3,6.491201E2,2.7996922E4,2.0847093E2,1.4961447E2,2.3283176E3,2.4940756E2,8.648101E2,2.7414163E2,3.0053923E3,2.671857E2,6.035398E2,1.200346E3,1.631695E3,3.9898257E2,6.2533105E3,2.1981575E3,3.3634906E4,1.9789194E0,1.3842366E2,4.5680225E2,1.0941952E3,1.0175334E2,1.5475311E1,1.9049751E3,3.5303598E2,2.9608414E2,1.638449E3,2.6358473E4,6.416028E0,1.4319844E2,1.23753E2,1.2565457E2,6.12821E2,2.5198909E2,2.8177148E2,2.7236208E3,4.931498E2,1.10390015E2,1.366825E2,1.0636635E3,1.3606215E3,2.710735E2,1.6888507E2,2.3009752E2,1.619069E2,6.091404E3,1.204753E3,9.934044E2],"tree_param":{"num_deleted":"0","num_feature":"31","num_nodes":"83","size_leaf_vector":"1"}},{"base_weights":[-3.1895234E-4,1.1834456E0,-9.2372334E-1,1.2730877E0,4.9340546E-1,-1.1674869E0,-4.1921535E-1,-1.2365051E-1,1.2750069E0,-4.483087E-2,1.1329371E0,-1.2352403E0,-6.484583E-1,3.268342E-1,-7.8153265E-1,1.2759361E0,-1.1926841E-1,3.523723E-1,-1.3384621E-1,-1.4298202E-1,1.1905603E0,-1.2521708E0,7.661434E-2,-1.2079316E0,5.52233E-1,1.1241211E0,-1.1609759E-1,1.7820999E-2,-9.8085773E-1,1.2762021E0,-1.8206967E-1,-7.978163E-1,9.2554826E-1,-1.5832253E-1,1.2263768E0,-2.8613946E-1,-1.2750065E0,-1.2875073E-1,1.8322974E0,-1.0983741E-1,-1.3241856E-1,1.1102396E0,-1.3316023E-1,-2.1808555E0,1.1719093E0,-6.972259E-1,6.050616E-1,-1.3281386E-1,3.785119E-1,-1.2497046E0,-2.4410799E-1,-1.5758255E-1,1.2764297E-1,1.3425206E-1,-1.4593415E-1,1.1311759E-1,-1.302767E-1,-1.5479681E-1,1.250349E-1,-1.2985623E-1,8.691623E-2,-1.2943037E-1,-9.451402E-2,-1.1364148E-1,1.9633996E-1,9.887665E-2,-1.3236316E-1,-2.3576945E-2,1.6649899E-1,-2.3869975E-1,-1.1427659E-1,1.2235373E-1,-1.6779919E-1,-1.13806E-1,8.0517195E-2,8.653044E-2,-1.3554977E-1,6.740346E-2,-1.4476705E-1,6.993193E-2,-1.3054214E-1,5.934161E-2,-1.3287665E-1],"categories":[],"categories_nodes":[],"categories_segments":[],"categories_sizes":[],"default_left":[0,0,0,0,0,0,0,0,0,0,0,0,0,0,0,0,0,0,0,0,0,0,0,0,0,0,0,0,0,0,0,0,0,0,0,0,0,0,0,0,0,0,0,0,0,0,0,0,0,0,0,0,0,0,0,0,0,0,0,0,0,0,0,0,0,0,0,0,0,0,0,0,0,0,0,0,0,0,0,0,0,0,0],"id":8,"left_children":[1,3,5,7,9,11,13,-1,15,17,19,21,23,25,27,29,-1,31,-1,-1,33,35,37,39,41,43,45,47,49,51,-1,53,55,-1,57,59,61,-1,63,65,-1,67,-1,69,71,73,75,-1,77,79,81,-1,-1,-1,-1,-1,-1,-1,-1,-1,-1,-1,-1,-1,-1,-1,-1,-1,-1,-1,-1,-1,-1,-1,-1,-1,-1,-1,-1,-1,-1,-1,-1],"loss_changes":[8.844988E4,2.192789E3,5.58991E3,1.5271875E2,1.403951E3,1.0769766E3,4.0035542E3,0E0,7.343359E1,1.1389253E3,2.7695288E2,6.021758E2,2.3793154E3,1.710073E3,1.588415E3,2.8144531E1,0E0,1.1187886E3,0E0,0E0,1.8309766E2,5.9002734E2,8.3182574E2,3.0824487E2,1.1853174E3,2.7569336E2,1.3053182E3,9.669452E2,1.5802056E3,2.2347656E1,0E0,8.01346E2,5.2031165E2,0E0,1.2169971E2,7.255248E2,1.6520312E2,0E0,6.1330902E1,3.1115576E2,0E0,6.495553E2,0E0,2.6218872E0,2.5297461E2,1.1432007E3,7.1036536E2,0E0,8.48684E2,6.357383E2,1.9398733E3,0E0,0E0,0E0,0E0,0E0,0E0,0E0,0E0,0E0,0E0,0E0,0E0,0E0,0E0,0E0,0E0,0E0,0E0,0E0,0E0,0E0,0E0,0E0,0E0,0E0,0E0,0E0,0E0,0E0,0E0,0E0,0E0],"parents":[2147483647,0,0,1,1,2,2,3,3,4,4,5,5,6,6,8,8,9,9,10,10,11,11,12,12,13,13,14,14,15,15,17,17,20,20,21,21,22,22,23,23,24,24,25,25,26,26,27,27,28,28,29,29,31,31,32,32,34,34,35,35,36,36,38,38,39,39,41,41,43,43,44,44,45,45,46,46,48,48,49,49,50,50],"right_children":[2,4,6,8,10,12,14,-1,16,18,20,22,24,26,28,30,-1,32,-1,-1,34,36,38,40,42,44,46,48,50,52,-1,54,56,-1,58,60,62,-1,64,66,-1,68,-1,70,72,74,76,-1,78,80,82,-1,-1,-1,-1,-1,-1,-1,-1,-1,-1,-1,-1,-1,-1,-1,-1,-1,-1,-1,-1,-1,-1,-1,-1,-1,-1,-1,-1,-1,-1,-1,-1],"split_conditions":[-1.7859976E0,-1.4160796E0,7.413282E-1,-4.9830067E-1,1.8959074E0,1.0663408E0,-5.575814E-1,-1.2365051E-1,5.767415E-1,2.2414032E-2,5.4089034E-1,1.2022438E0,1.5378694E-1,-7.233957E-1,1.54E0,1.9602777E0,-1.1926841E-1,-2.005085E-2,-1.3384621E-1,-1.4298202E-1,-8.7419903E-1,-9.853448E-1,1.3465661E0,-1.6809931E0,-2.625529E-1,-5.3496045E-1,5.47024E-1,9.92398E-3,5.5362684E-1,5.761E3,-1.8206967E-1,-2.288321E0,-1.1814422E-1,-1.5832253E-1,-2.4201917E-2,-1.7444316E0,1.3500417E0,-1.2875073E-1,4.590445E-1,-1.1530814E0,-1.3241856E-1,1.8E1,-1.3316023E-1,1.2034454E0,1.2456738E0,2.5466412E-1,4.9030712E-1,-1.3281386E-1,-7.400794E-2,-3.7707021E0,5.5887373E-3,-1.5758255E-1,1.2764297E-1,1.3425206E-1,-1.4593415E-1,1.1311759E-1,-1.302767E-1,-1.5479681E-1,1.250349E-1,-1.2985623E-1,8.691623E-2,-1.2943037E-1,-9.451402E-2,-1.1364148E-1,1.9633996E-1,9.887665E-2,-1.3236316E-1,-2.3576945E-2,1.6649899E-1,-2.3869975E-1,-1.1427659E-1,1.2235373E-1,-1.6779919E-1,-1.13806E-1,8.0517195E-2,8.653044E-2,-1.3554977E-1,6.740346E-2,-1.4476705E-1,6.993193E-2,-1.3054214E-1,5.934161E-2,-1.3287665E-1],"split_indices":[14,12,4,4,4,7,12,0,10,27,18,26,4,14,29,1,0,27,0,0,22,20,12,10,13,25,22,28,17,0,0,5,26,0,28,1,16,0,25,16,0,30,0,3,1,28,18,0,9,3,8,0,0,0,0,0,0,0,0,0,0,0,0,0,0,0,0,0,0,0,0,0,0,0,0,0,0,0,0,0,0,0,0],"split_type":[0,0,0,0,0,0,0,0,0,0,0,0,0,0,0,0,0,0,0,0,0,0,0,0,0,0,0,0,0,0,0,0,0,0,0,0,0,0,0,0,0,0,0,0,0,0,0,0,0,0,0,0,0,0,0,0,0,0,0,0,0,0,0,0,0,0,0,0,0,0,0,0,0,0,0,0,0,0,0,0,0,0,0],"sum_hessian":[8.091504E4,3.54585E4,4.5456543E4,3.138099E4,4.077507E3,3.0647332E4,1.4809212E4,2.3488106E1,3.1357504E4,2.2146038E3,1.8629033E3,2.7107385E4,3.5399475E3,4.8410586E3,9.968153E3,3.1346182E4,1.1320783E1,1.6949158E3,5.1968805E2,4.044233E1,1.8224609E3,2.6762047E4,3.4533765E2,2.4147612E3,1.1251864E3,1.7283868E3,3.1126719E3,1.9897139E3,7.9784395E3,3.1344078E4,2.1044433E0,5.635838E2,1.131332E3,2.268176E1,1.7997792E3,6.183253E2,2.614372E4,1.9449026E2,1.5084738E2,2.3135988E2,2.1834014E3,8.68377E2,2.5680936E2,2.3999144E1,1.7043877E3,1.7237021E3,1.3889697E3,4.1994788E2,1.569766E3,5.8448887E3,2.1335505E3,1.9479289E0,3.1342129E4,1.3282022E2,4.3076358E2,1.0362041E3,9.512793E1,1.48734045E1,1.7849058E3,3.294741E2,2.8885123E2,2.4696084E4,1.4476377E3,6.055564E0,1.4479182E2,1.2153976E2,1.0982012E2,2.5360985E2,6.1476715E2,1.893888E1,5.0602627E0,1.6746215E3,2.9766258E1,1.3328572E3,3.9084488E2,1.2266976E3,1.6227208E2,1.3516635E3,2.1810252E2,1.6212329E2,5.6827656E3,1.2041858E3,9.2936475E2],"tree_param":{"num_deleted":"0","num_feature":"31","num_nodes":"83","size_leaf_vector":"1"}},{"base_weights":[-4.7491878E-4,1.1502657E0,-8.888334E-1,1.2388673E0,4.7496122E-1,-1.1304808E0,-3.985334E-1,-1.2006509E-1,1.240742E0,-4.347733E-2,1.0950595E0,-1.1985123E0,-6.1872196E-1,3.0735672E-1,-7.449191E-1,1.2416532E0,-1.1554009E-1,3.370493E-1,-1.2964714E-1,-1.3737428E-1,1.1510029E0,-1.2152994E0,6.965124E-2,-1.1695151E0,5.058508E-1,7.2589254E-1,-4.7089723E-1,1.4929543E-2,-9.4159883E-1,-1.0956295E-1,1.2420179E0,-7.6498765E-1,8.853759E-1,-1.5059711E-1,1.1859689E0,-2.7290452E-1,-1.2380648E0,-1.2517439E-1,1.6708256E0,-1.2851685E-1,-1.1091893E-1,1.0044963E0,-1.2898578E-1,9.035705E-1,-1.3070743E-1,6.5574217E-1,-1.0459379E0,1.0350535E0,-4.393286E-1,-2.2373347E-1,-1.2187268E0,1.24225274E-1,-1.4651053E-1,-1.4047709E-1,1.2724611E-1,1.0810118E-1,-1.2642166E-1,-1.9021504E-1,1.2073558E-1,-1.262034E-1,8.036767E-2,-9.0079226E-2,-1.259545E-1,-1.1235689E-1,1.787325E-1,-1.269751E-1,9.969904E-2,1.2881248E-1,-1.3758098E-1,9.882203E-2,-1.4548331E-1,1.0567393E-1,-1.4376958E-1,8.8602476E-2,-1.3053913E-1,1.6775781E-1,-1.4716291E-1,-1.4378773E-1,4.8282165E-2,1.0433688E-1,-8.809621E-2,-1.2761548E-1,6.459602E-2],"categories":[],"categories_nodes":[],"categories_segments":[],"categories_sizes":[],"default_left":[0,0,0,0,0,0,0,0,0,0,0,0,0,0,0,0,0,0,0,0,0,0,0,0,0,0,0,0,0,0,0,0,0,0,0,0,0,0,0,0,0,0,0,0,0,0,0,0,0,0,0,0,0,0,0,0,0,0,0,0,0,0,0,0,0,0,0,0,0,0,0,0,0,0,0,0,0,0,0,0,0,0,0],"id":9,"left_children":[1,3,5,7,9,11,13,-1,15,17,19,21,23,25,27,29,-1,31,-1,-1,33,35,37,39,41,43,45,47,49,-1,51,53,55,-1,57,59,61,-1,63,-1,65,67,-1,69,-1,71,73,75,77,79,81,-1,-1,-1,-1,-1,-1,-1,-1,-1,-1,-1,-1,-1,-1,-1,-1,-1,-1,-1,-1,-1,-1,-1,-1,-1,-1,-1,-1,-1,-1,-1,-1],"loss_changes":[7.734622E4,1.9716758E3,5.058457E3,1.3475E2,1.2296566E3,9.9503516E2,3.4473728E3,0E0,6.5015625E1,9.941414E2,2.4213062E2,5.375E2,2.0806177E3,1.5122063E3,1.4134297E3,2.6167969E1,0E0,9.6717E2,0E0,0E0,1.6006006E2,5.341797E2,7.01878E2,2.758628E2,9.904723E2,1.0915735E3,1.0526951E3,9.020682E2,1.4943682E3,0E0,2.0320312E1,6.951823E2,4.5070416E2,0E0,1.1338867E2,6.28169E2,1.7510547E2,0E0,5.083023E1,0E0,2.8774127E2,5.8587115E2,0E0,5.5576587E2,0E0,4.6267133E2,5.402407E2,9.684359E2,1.2409321E3,1.7445552E3,5.8125146E2,0E0,0E0,0E0,0E0,0E0,0E0,0E0,0E0,0E0,0E0,0E0,0E0,0E0,0E0,0E0,0E0,0E0,0E0,0E0,0E0,0E0,0E0,0E0,0E0,0E0,0E0,0E0,0E0,0E0,0E0,0E0,0E0],"parents":[2147483647,0,0,1,1,2,2,3,3,4,4,5,5,6,6,8,8,9,9,10,10,11,11,12,12,13,13,14,14,15,15,17,17,20,20,21,21,22,22,23,23,24,24,25,25,26,26,27,27,28,28,30,30,31,31,32,32,34,34,35,35,36,36,38,38,40,40,41,41,43,43,45,45,46,46,47,47,48,48,49,49,50,50],"right_children":[2,4,6,8,10,12,14,-1,16,18,20,22,24,26,28,30,-1,32,-1,-1,34,36,38,40,42,44,46,48,50,-1,52,54,56,-1,58,60,62,-1,64,-1,66,68,-1,70,-1,72,74,76,78,80,82,-1,-1,-1,-1,-1,-1,-1,-1,-1,-1,-1,-1,-1,-1,-1,-1,-1,-1,-1,-1,-1,-1,-1,-1,-1,-1,-1,-1,-1,-1,-1,-1],"split_conditions":[-1.7859976E0,-1.4160796E0,7.413282E-1,-4.9830067E-1,1.8959074E0,1.0663408E0,-5.575814E-1,-1.2006509E-1,5.767415E-1,2.2414032E-2,5.4089034E-1,1.2022438E0,1.5378694E-1,3.4057415E-1,1.54E0,-7.0277715E-1,-1.1554009E-1,-2.005085E-2,-1.2964714E-1,-1.3737428E-1,-8.7419903E-1,-9.853448E-1,1.3465661E0,3.0202103E0,-2.625529E-1,1.2776982E0,-7.4005884E-1,9.120405E-1,-4.254906E-1,-1.0956295E-1,2.1790798E0,6.99E2,-1.1814422E-1,-1.5059711E-1,-1.851302E0,-1.7444316E0,-1.5605403E0,-1.2517439E-1,1.0524671E0,-1.2851685E-1,-7.6918113E-1,-8.047335E-2,-1.2898578E-1,1.2456738E0,-1.3070743E-1,7.142417E-1,-2.450811E0,5.3249E4,2.4474049E0,-2.6673785E-1,1.4362998E0,1.24225274E-1,-1.4651053E-1,-1.4047709E-1,1.2724611E-1,1.0810118E-1,-1.2642166E-1,-1.9021504E-1,1.2073558E-1,-1.262034E-1,8.036767E-2,-9.0079226E-2,-1.259545E-1,-1.1235689E-1,1.787325E-1,-1.269751E-1,9.969904E-2,1.2881248E-1,-1.3758098E-1,9.882203E-2,-1.4548331E-1,1.0567393E-1,-1.4376958E-1,8.8602476E-2,-1.3053913E-1,1.6775781E-1,-1.4716291E-1,-1.4378773E-1,4.8282165E-2,1.0433688E-1,-8.809621E-2,-1.2761548E-1,6.459602E-2],"split_indices":[14,12,4,4,4,7,12,0,10,27,18,26,4,14,29,11,0,27,0,0,22,20,12,7,13,3,7,4,14,0,7,29,26,0,9,1,13,0,19,0,1,10,0,1,0,3,19,0,4,20,9,0,0,0,0,0,0,0,0,0,0,0,0,0,0,0,0,0,0,0,0,0,0,0,0,0,0,0,0,0,0,0,0],"split_type":[0,0,0,0,0,0,0,0,0,0,0,0,0,0,0,0,0,0,0,0,0,0,0,0,0,0,0,0,0,0,0,0,0,0,0,0,0,0,0,0,0,0,0,0,0,0,0,0,0,0,0,0,0,0,0,0,0,0,0,0,0,0,0,0,0,0,0,0,0,0,0,0,0,0,0,0,0,0,0,0,0,0,0],"sum_hessian":[7.565923E4,3.2961742E4,4.269749E4,2.9137936E4,3.823805E3,2.860033E4,1.4097157E4,2.1883049E1,2.9116053E4,2.0831223E3,1.7406826E3,2.5243236E4,3.357093E3,4.6405063E3,9.45665E3,2.9105465E4,1.0587556E1,1.5984222E3,4.8470007E2,3.804815E1,1.7026344E3,2.4913492E4,3.2974573E2,2.2533884E3,1.1037043E3,3.0176936E3,1.6228127E3,1.94465E3,7.5120005E3,4.072016E0,2.9101395E4,5.3093805E2,1.0674841E3,2.1569328E1,1.6810651E3,5.87945E2,2.4325547E4,1.8077579E2,1.4896992E2,2.0312562E3,2.2213232E2,8.641747E2,2.3952972E2,2.7756611E3,2.4203267E2,5.48342E2,1.0744708E3,5.987541E2,1.3458959E3,2.092764E3,5.4192363E3,2.909941E4,1.9828676E0,4.0429507E2,1.2664295E2,9.7889166E2,8.85925E1,1.0957347E1,1.6701078E3,3.0632803E2,2.81617E2,1.4590536E3,2.2866492E4,5.6160917E0,1.4335384E2,1.0849963E2,1.1363268E2,7.725762E2,9.159849E1,2.6800476E3,9.5613495E1,4.6060797E2,8.773404E1,1.2692638E2,9.4754443E2,4.768551E2,1.2189898E2,6.45912E2,6.999839E2,7.145539E2,1.37821E3,5.2576294E3,1.6160693E2],"tree_param":{"num_deleted":"0","num_feature":"31","num_nodes":"83","size_leaf_vector":"1"}},{"base_weights":[-6.394627E-4,1.1214939E0,-8.5785735E-1,1.2094097E0,4.5836276E-1,-1.0984807E0,-3.79806E-1,-1.1691103E-1,1.2112473E0,-4.2346407E-2,1.0608116E0,-1.1665206E0,-5.942222E-1,2.9108304E-1,-7.092952E-1,1.2121444E0,-1.1220731E-1,3.2322976E-1,-1.2606414E-1,-1.5212233E0,1.112787E0,-1.1831524E0,6.418116E-2,-1.1366456E0,4.6941033E-1,1.0255661E0,-1.1545063E-1,1.1955726E-2,-9.021197E-1,1.2153167E0,8.968067E-1,-7.366723E-1,8.4861654E-1,-1.3323317E-1,-2.0810755E-1,-1.52261E-1,1.154083E0,-2.6068768E-1,-1.2059665E0,-1.2210043E-1,1.5472584E0,-8.955042E-2,-1.250423E-1,9.2389494E-1,-1.254244E-1,-1.5285962E0,1.0885957E0,-6.535362E-1,5.431108E-1,-8.953216E-1,4.565095E-1,-1.1824917E0,-1.9211063E-1,1.2155302E-1,-1.29794E-1,1.19126834E-1,-3.9527175E-1,1.2115856E-1,-1.3586035E-1,1.0350189E-1,-1.2309996E-1,1.17941715E-1,-1.4603315E-1,-1.2306712E-1,7.432521E-2,-1.2285799E-1,-8.323868E-2,-1.0742178E-1,1.6560441E-1,-1.2595694E-1,9.396458E-2,-1.4244246E-1,1.18437186E-1,-1.7357628E-1,-1.2188651E-1,1.1339482E-1,-2.2015157E-1,5.9778154E-2,-1.141149E-1,7.7474244E-2,-1.3040785E-1,1.3687389E-1,-1.4271711E-1,1.0264327E-1,-1.3281032E-1,6.875216E-2,-1.23944394E-1,5.4365274E-2,-1.2635927E-1],"categories":[],"categories_nodes":[],"categories_segments":[],"categories_sizes":[],"default_left":[0,0,0,0,0,0,0,0,0,0,0,0,0,0,0,0,0,0,0,0,0,0,0,0,0,0,0,0,0,0,0,0,0,0,0,0,0,0,0,0,0,0,0,0,0,0,0,0,0,0,0,0,0,0,0,0,0,0,0,0,0,0,0,0,0,0,0,0,0,0,0,0,0,0,0,0,0,0,0,0,0,0,0,0,0,0,0,0,0],"id":10,"left_children":[1,3,5,7,9,11,13,-1,15,17,19,21,23,25,27,29,-1,31,-1,33,35,37,39,41,43,45,47,49,51,53,55,57,59,-1,-1,-1,61,63,65,-1,67,69,-1,71,-1,73,75,77,79,81,83,85,87,-1,-1,-1,-1,-1,-1,-1,-1,-1,-1,-1,-1,-1,-1,-1,-1,-1,-1,-1,-1,-1,-1,-1,-1,-1,-1,-1,-1,-1,-1,-1,-1,-1,-1,-1,-1],"loss_changes":[6.785808E4,1.7805938E3,4.6000312E3,1.1931641E2,1.0793275E3,9.120254E2,2.9604973E3,0E0,5.7777344E1,8.7108203E2,2.1963757E2,4.7983398E2,1.8264125E3,1.3173661E3,1.2490942E3,2.5863281E1,0E0,8.384106E2,0E0,6.608505E-1,1.7507532E2,4.8638086E2,5.993827E2,2.496211E2,8.390287E2,2.5471948E2,1.0069715E3,7.649726E2,1.4105117E3,1.5894531E1,3.9337555E2,6.0644836E2,3.9137793E2,0E0,0E0,0E0,1.0561255E2,5.456816E2,1.89625E2,0E0,4.3407776E1,2.498785E2,0E0,5.197632E2,0E0,3.4008026E-1,2.3148352E2,9.5482947E2,5.4777014E2,7.529934E2,1.2960159E3,5.419175E2,1.5832532E3,0E0,0E0,0E0,0E0,0E0,0E0,0E0,0E0,0E0,0E0,0E0,0E0,0E0,0E0,0E0,0E0,0E0,0E0,0E0,0E0,0E0,0E0,0E0,0E0,0E0,0E0,0E0,0E0,0E0,0E0,0E0,0E0,0E0,0E0,0E0,0E0],"parents":[2147483647,0,0,1,1,2,2,3,3,4,4,5,5,6,6,8,8,9,9,10,10,11,11,12,12,13,13,14,14,15,15,17,17,19,19,20,20,21,21,22,22,23,23,24,24,25,25,26,26,27,27,28,28,29,29,30,30,31,31,32,32,36,36,37,37,38,38,40,40,41,41,43,43,45,45,46,46,47,47,48,48,49,49,50,50,51,51,52,52],"right_children":[2,4,6,8,10,12,14,-1,16,18,20,22,24,26,28,30,-1,32,-1,34,36,38,40,42,44,46,48,50,52,54,56,58,60,-1,-1,-1,62,64,66,-1,68,70,-1,72,-1,74,76,78,80,82,84,86,88,-1,-1,-1,-1,-1,-1,-1,-1,-1,-1,-1,-1,-1,-1,-1,-1,-1,-1,-1,-1,-1,-1,-1,-1,-1,-1,-1,-1,-1,-1,-1,-1,-1,-1,-1,-1],"split_conditions":[-1.7859976E0,-1.4160796E0,7.413282E-1,-4.9830067E-1,1.8959074E0,1.0663408E0,-5.575814E-1,-1.1691103E-1,5.767415E-1,2.2414032E-2,-2.2614773E-1,1.2022438E0,1.5378694E-1,-7.233957E-1,1.54E0,-2.635484E0,-1.1220731E-1,-2.005085E-2,-1.2606414E-1,1.1560961E0,-1.987277E-2,-9.853448E-1,1.3465661E0,-1.6809931E0,-2.625529E-1,-9.959347E-1,5.47024E-1,5.7993103E-2,5.5362684E-1,2.1790798E0,-1.5891272E0,-2.288321E0,-1.1814422E-1,-1.3323317E-1,-2.0810755E-1,-1.52261E-1,2.0129874E0,-1.7444316E0,1.3500417E0,-1.2210043E-1,4.590445E-1,-7.6918113E-1,-1.250423E-1,-3.8602716E-1,-1.254244E-1,1.1888878E0,1.3126225E0,-3.9261013E-1,4.9030712E-1,-1.8650155E0,4.0059403E-1,-1.4909433E0,5.5887373E-3,1.2155302E-1,-1.29794E-1,1.19126834E-1,-3.9527175E-1,1.2115856E-1,-1.3586035E-1,1.0350189E-1,-1.2309996E-1,1.17941715E-1,-1.4603315E-1,-1.2306712E-1,7.432521E-2,-1.2285799E-1,-8.323868E-2,-1.0742178E-1,1.6560441E-1,-1.2595694E-1,9.396458E-2,-1.4244246E-1,1.18437186E-1,-1.7357628E-1,-1.2188651E-1,1.1339482E-1,-2.2015157E-1,5.9778154E-2,-1.141149E-1,7.7474244E-2,-1.3040785E-1,1.3687389E-1,-1.4271711E-1,1.0264327E-1,-1.3281032E-1,6.875216E-2,-1.23944394E-1,5.4365274E-2,-1.2635927E-1],"split_indices":[14,12,4,4,4,7,12,0,10,27,20,26,4,14,29,14,0,27,0,18,11,20,12,10,13,11,22,16,17,7,1,5,26,0,0,0,2,1,16,0,25,1,0,15,0,3,18,21,18,25,16,10,8,0,0,0,0,0,0,0,0,0,0,0,0,0,0,0,0,0,0,0,0,0,0,0,0,0,0,0,0,0,0,0,0,0,0,0,0],"split_type":[0,0,0,0,0,0,0,0,0,0,0,0,0,0,0,0,0,0,0,0,0,0,0,0,0,0,0,0,0,0,0,0,0,0,0,0,0,0,0,0,0,0,0,0,0,0,0,0,0,0,0,0,0,0,0,0,0,0,0,0,0,0,0,0,0,0,0,0,0,0,0,0,0,0,0,0,0,0,0,0,0,0,0,0,0,0,0,0,0],"sum_hessian":[7.054294E4,3.0550615E4,3.999232E4,2.6973707E4,3.5769094E3,2.660141E4,1.3390909E4,2.0332815E1,2.6953373E4,1.9539042E3,1.6230051E3,2.3437643E4,3.1637686E3,4.41053E3,8.980379E3,2.6943496E4,9.878102E0,1.5034851E3,4.5041907E2,3.1467947E1,1.5915371E3,2.3125168E4,3.124755E2,2.0952036E3,1.068565E3,1.5708884E3,2.8396416E3,1.8946115E3,7.0857676E3,2.667232E4,2.711759E2,4.981426E2,1.0053425E3,2.6056421E1,5.4115252E0,2.400084E1,1.5675363E3,5.5842096E2,2.2566746E4,1.6750122E2,1.4497427E2,2.0552657E2,1.889677E3,8.4596826E2,2.2259671E2,3.7271633E1,1.5336167E3,1.5627695E3,1.2768721E3,6.227153E2,1.2718961E3,5.0793447E3,2.0064227E3,2.667057E4,1.7493303E0,2.5636392E2,1.4811984E1,1.2031052E2,3.778321E2,9.231042E2,8.2238335E1,1.553036E3,1.4500309E1,2.838987E2,2.7452222E2,2.1276557E4,1.29019E3,5.422814E0,1.3955147E2,9.607827E1,1.09448296E2,8.4020065E1,7.619482E2,1.957477E1,1.7696861E1,1.5134105E3,2.0206198E1,4.381522E2,1.1246173E3,1.1351132E3,1.4175897E2,1.1815612E2,5.0455917E2,9.643515E2,3.0754462E2,1.4979485E2,4.92955E3,1.1898627E3,8.165601E2],"tree_param":{"num_deleted":"0","num_feature":"31","num_nodes":"89","size_leaf_vector":"1"}},{"base_weights":[-7.983332E-4,1.0964239E0,-8.299422E-1,1.184719E0,4.47579E-1,-1.0701538E0,-3.6280572E-1,-1.3500363E-1,1.1869068E0,-1.5016265E-1,1.031776E0,-1.1384319E0,-5.719045E-1,2.738982E-1,-6.80404E-1,1.1877464E0,-1.4343368E-1,4.3660668E-1,-1.0361468E0,1.0753655E0,-1.9832784E0,-1.1548997E0,5.9796453E-2,-1.1078162E0,4.3639287E-1,9.771921E-1,-1.08701535E-1,9.799335E-3,-8.695753E-1,-1.3193731E-1,1.188485E0,-1.4130355E0,8.264397E-1,-1.3855718E0,6.397077E-1,1.1009445E0,-1.9035951E0,-4.0821534E-1,-1.4984633E0,-2.4926603E-1,-1.177875E0,-1.1943855E-1,1.450505E0,-1.2218209E-1,-8.940537E-2,-6.774373E-1,1.105493E0,1.0359789E0,-1.8086749E0,5.359008E-1,-6.449239E-1,9.062515E-1,-4.1258118E-1,-1.7964359E-1,-1.160503E0,1.18899785E-1,-1.4675508E-1,-2.6232237E-1,-1.3238943E-1,-1.331153E-1,1.0447861E-1,-1.6004573E-1,-1.21789254E-1,1.1839642E-1,-1.2468662E-1,1.1264813E-1,-1.2499314E-1,-1.14268936E-1,-2.2381508E-1,-1.2008005E-1,-1.8885213E-1,6.4718634E-2,-1.25621E-1,-7.967123E-2,-1.2029755E-1,1.552152E-1,-1.0869598E-1,9.422599E-2,-1.2199874E-1,-1.3142137E-1,1.0992279E-1,1.4497359E-1,-1.3154027E-1,-2.077852E-1,1.08042635E-1,-2.1337135E-1,-1.279214E-1,8.906868E-2,-1.3325138E-1,-1.3629399E-1,1.2191459E-2,1.4432931E-1,-1.3849646E-1,-1.3598426E-1,4.1216407E-2,4.615405E-2,-1.3041918E-1,-1.2201824E-1,5.9650104E-2],"categories":[],"categories_nodes":[],"categories_segments":[],"categories_sizes":[],"default_left":[0,0,0,0,0,0,0,0,0,0,0,0,0,0,0,0,0,0,0,0,0,0,0,0,0,0,0,0,0,0,0,0,0,0,0,0,0,0,0,0,0,0,0,0,0,0,0,0,0,0,0,0,0,0,0,0,0,0,0,0,0,0,0,0,0,0,0,0,0,0,0,0,0,0,0,0,0,0,0,0,0,0,0,0,0,0,0,0,0,0,0,0,0,0,0,0,0,0,0],"id":11,"left_children":[1,3,5,7,9,11,13,-1,15,17,19,21,23,25,27,29,-1,31,33,35,37,39,41,43,45,47,49,51,53,-1,55,57,59,61,63,65,67,-1,69,71,73,-1,75,-1,77,79,81,83,85,87,89,91,93,95,97,-1,-1,-1,-1,-1,-1,-1,-1,-1,-1,-1,-1,-1,-1,-1,-1,-1,-1,-1,-1,-1,-1,-1,-1,-1,-1,-1,-1,-1,-1,-1,-1,-1,-1,-1,-1,-1,-1,-1,-1,-1,-1,-1,-1],"loss_changes":[5.9698324E4,1.6175742E3,4.193635E3,1.3946484E2,1.182092E3,8.390488E2,2.5671606E3,0E0,5.6367188E1,8.706259E2,2.2711621E2,4.2839648E2,1.6090201E3,1.1370863E3,1.1058804E3,4.7558594E1,0E0,7.277388E2,3.9157715E2,1.3072888E2,1.9065811E1,4.4524414E2,5.166814E2,2.255957E2,7.7120483E2,2.4570996E2,9.4658386E2,6.906456E2,1.3341328E3,0E0,3.5558594E1,1.5489319E1,3.937625E2,1.7954224E1,1.2037103E2,1.0192798E2,1.1943245E0,0E0,2.4991989E-1,4.801865E2,1.9883594E2,0E0,3.7912598E1,0E0,2.3067998E2,4.410677E2,5.4044824E2,2.0413745E2,2.6283417E0,8.256167E2,8.232422E2,7.2080206E2,9.691882E2,1.423178E3,4.9102197E2,0E0,0E0,0E0,0E0,0E0,0E0,0E0,0E0,0E0,0E0,0E0,0E0,0E0,0E0,0E0,0E0,0E0,0E0,0E0,0E0,0E0,0E0,0E0,0E0,0E0,0E0,0E0,0E0,0E0,0E0,0E0,0E0,0E0,0E0,0E0,0E0,0E0,0E0,0E0,0E0,0E0,0E0,0E0,0E0],"parents":[2147483647,0,0,1,1,2,2,3,3,4,4,5,5,6,6,8,8,9,9,10,10,11,11,12,12,13,13,14,14,15,15,17,17,18,18,19,19,20,20,21,21,22,22,23,23,24,24,25,25,26,26,27,27,28,28,30,30,31,31,32,32,33,33,34,34,35,35,36,36,38,38,39,39,40,40,42,42,44,44,45,45,46,46,47,47,48,48,49,49,50,50,51,51,52,52,53,53,54,54],"right_children":[2,4,6,8,10,12,14,-1,16,18,20,22,24,26,28,30,-1,32,34,36,38,40,42,44,46,48,50,52,54,-1,56,58,60,62,64,66,68,-1,70,72,74,-1,76,-1,78,80,82,84,86,88,90,92,94,96,98,-1,-1,-1,-1,-1,-1,-1,-1,-1,-1,-1,-1,-1,-1,-1,-1,-1,-1,-1,-1,-1,-1,-1,-1,-1,-1,-1,-1,-1,-1,-1,-1,-1,-1,-1,-1,-1,-1,-1,-1,-1,-1,-1,-1],"split_conditions":[-1.7859976E0,-1.7696148E0,7.413282E-1,-4.8604634E-1,2.1870494E0,1.0663408E0,-5.575814E-1,-1.3500363E-1,3.1570253E-1,-1.1702472E-1,7.382561E-1,1.2022438E0,1.5378694E-1,-7.233957E-1,1.54E0,-4.8450577E-1,-1.4343368E-1,8.9619E4,1.66793E5,1.55872E5,-1.7750509E0,-9.853448E-1,1.3465661E0,3.0202103E0,1.8E1,1.9E1,7.65E0,9.120405E-1,-4.254906E-1,-1.3193731E-1,-1.7279367E-1,-1.4160796E0,-2.0593171E-1,-1.1814422E-1,-1.0690001E0,5.767415E-1,-3.8468495E-1,-4.0821534E-1,8.183906E-1,-8.945301E-1,-1.5605403E0,-1.1943855E-1,1.381524E0,-1.2218209E-1,5.6E2,1.5944186E0,-7.0378727E-1,-5.3496045E-1,1.1615784E0,-4.0749885E-2,8.968332E-2,5.3249E4,2.4474049E0,-8.215705E-2,1.4362998E0,1.18899785E-1,-1.4675508E-1,-2.6232237E-1,-1.3238943E-1,-1.331153E-1,1.0447861E-1,-1.6004573E-1,-1.21789254E-1,1.1839642E-1,-1.2468662E-1,1.1264813E-1,-1.2499314E-1,-1.14268936E-1,-2.2381508E-1,-1.2008005E-1,-1.8885213E-1,6.4718634E-2,-1.25621E-1,-7.967123E-2,-1.2029755E-1,1.552152E-1,-1.0869598E-1,9.422599E-2,-1.2199874E-1,-1.3142137E-1,1.0992279E-1,1.4497359E-1,-1.3154027E-1,-2.077852E-1,1.08042635E-1,-2.1337135E-1,-1.279214E-1,8.906868E-2,-1.3325138E-1,-1.3629399E-1,1.2191459E-2,1.4432931E-1,-1.3849646E-1,-1.3598426E-1,4.1216407E-2,4.615405E-2,-1.3041918E-1,-1.2201824E-1,5.9650104E-2],"split_indices":[14,10,4,4,4,7,12,0,12,22,13,26,4,14,29,11,0,0,0,0,12,20,12,7,30,30,29,4,14,0,3,12,21,26,7,10,21,0,18,16,13,0,12,0,29,22,10,25,3,18,23,0,4,13,9,0,0,0,0,0,0,0,0,0,0,0,0,0,0,0,0,0,0,0,0,0,0,0,0,0,0,0,0,0,0,0,0,0,0,0,0,0,0,0,0,0,0,0,0],"split_type":[0,0,0,0,0,0,0,0,0,0,0,0,0,0,0,0,0,0,0,0,0,0,0,0,0,0,0,0,0,0,0,0,0,0,0,0,0,0,0,0,0,0,0,0,0,0,0,0,0,0,0,0,0,0,0,0,0,0,0,0,0,0,0,0,0,0,0,0,0,0,0,0,0,0,0,0,0,0,0,0,0,0,0,0,0,0,0,0,0,0,0,0,0,0,0,0,0,0,0],"sum_hessian":[6.561821E4,2.8243164E4,3.7375047E4,2.4859453E4,3.383711E3,2.4681834E4,1.2693215E4,2.0906797E1,2.4838545E4,1.6728345E3,1.7108765E3,2.1706037E4,2.9757964E3,4.224434E3,8.46878E3,2.4831139E4,7.406319E0,1.00665466E3,6.6617975E2,1.6871284E3,2.3748032E1,2.1411803E4,2.9423477E2,1.9429934E3,1.032803E3,1.487874E3,2.73656E3,1.8220103E3,6.64677E3,6.788411E0,2.4824352E4,1.7477489E2,8.3187976E2,5.513859E2,1.1479382E2,1.6733903E3,1.373822E1,3.0638611E0,2.068417E1,5.3005743E2,2.0881746E4,1.5478566E2,1.3944911E2,1.747205E3,1.9578838E2,3.875868E2,6.452162E2,1.4577412E3,3.0132828E1,1.2426951E3,1.493865E3,5.831655E2,1.2388447E3,1.9719441E3,4.674826E3,2.4820111E4,4.239816E0,1.0040236E1,1.6473465E2,7.598054E1,7.5589923E2,2.379289E2,3.1345703E2,8.938084E1,2.5412989E1,1.6559233E3,1.7466883E1,5.544189E0,8.194032E0,1.4044778E1,6.639393E0,2.8060257E2,2.4945485E2,1.292176E3,1.9589568E4,1.3445149E2,4.997624E0,1.0245967E2,9.3328705E1,2.8551526E2,1.0207152E2,5.652419E2,7.997427E1,1.9871412E1,1.4378698E3,1.6793343E1,1.3339484E1,1.0448213E3,1.9787378E2,7.7109045E2,7.2277454E2,4.7273138E2,1.1043416E2,5.762937E2,6.62551E2,1.2562545E3,7.156896E2,4.52155E3,1.5327623E2],"tree_param":{"num_deleted":"0","num_feature":"31","num_nodes":"99","size_leaf_vector":"1"}},{"base_weights":[-9.986085E-4,1.0739417E0,-8.0385596E-1,1.1617687E0,4.26215E-1,-1.0452231E0,-3.462165E-1,-1.1099364E-1,1.1635079E0,-4.4601206E-2,1.0001321E0,-1.1497107E0,-7.1372014E-1,2.5792775E-1,-6.508233E-1,1.1643364E0,-1.04704194E-1,-5.2875894E-1,7.7310467E-1,1.0583197E0,-1.3076858E-1,-1.1691695E0,1.0547456E-1,1.4213446E0,-8.443453E-1,6.213548E-1,-4.2598617E-1,-2.941797E-1,-9.9597085E-1,1.1678133E0,8.273868E-1,1.707034E-1,-1.3492103E0,1.0224068E0,-1.4180766E-1,1.0917526E0,-1.611492E0,-1.1824626E0,3.862438E-1,-1.1708283E-1,1.3716894E0,2.2374475E0,-1.1641202E-1,-1.136295E0,5.0216294E-3,7.808614E-1,-1.2519716E-1,6.243678E-1,-9.911571E-1,7.268119E-1,-5.8269686E-1,-2.2109243E-1,-1.1975732E0,1.16805114E-1,-1.22674786E-1,-3.1802905E-1,1.1388945E-1,7.243928E-2,-1.18168294E-1,-1.4957167E-1,-1.20903075E-1,1.1048391E-1,-1.832376E-1,1.1178376E-1,-1.4494948E-1,-1.227062E-1,-2.057282E-1,-1.2121425E-1,-1.1787384E-1,-1.1695027E-1,1.2322998E-1,-1.04493015E-1,1.4690582E-1,3.2452068E-1,1.16497375E-1,-1.189117E-1,-8.685688E-3,8.710257E-2,-8.827474E-2,-4.9291406E-2,9.26797E-2,1.0183455E-1,-1.2374766E-1,7.651993E-2,-1.23977005E-1,-1.381508E-1,1.2024059E-1,-9.845691E-2,2.5292179E-2,5.103461E-2,-1.3043486E-1,-1.2400942E-1,-1.1855616E-1],"categories":[],"categories_nodes":[],"categories_segments":[],"categories_sizes":[],"default_left":[0,0,0,0,0,0,0,0,0,0,0,0,0,0,0,0,0,0,0,0,0,0,0,0,0,0,0,0,0,0,0,0,0,0,0,0,0,0,0,0,0,0,0,0,0,0,0,0,0,0,0,0,0,0,0,0,0,0,0,0,0,0,0,0,0,0,0,0,0,0,0,0,0,0,0,0,0,0,0,0,0,0,0,0,0,0,0,0,0,0,0,0,0],"id":12,"left_children":[1,3,5,7,9,11,13,-1,15,17,19,21,23,25,27,29,-1,31,33,35,-1,37,39,41,43,45,47,49,51,53,55,57,59,61,-1,63,65,67,69,-1,71,73,-1,75,77,79,-1,81,83,85,87,89,91,-1,-1,-1,-1,-1,-1,-1,-1,-1,-1,-1,-1,-1,-1,-1,-1,-1,-1,-1,-1,-1,-1,-1,-1,-1,-1,-1,-1,-1,-1,-1,-1,-1,-1,-1,-1,-1,-1,-1,-1],"loss_changes":[5.2608758E4,1.4821719E3,3.8541758E3,9.197461E1,8.41361E2,7.905078E2,2.2178633E3,0E0,4.3222656E1,6.7794025E2,1.8981384E2,4.2435156E2,1.5289004E3,1.00444574E3,9.8592285E2,2.5894531E1,0E0,6.1744196E2,3.493449E2,1.2397705E2,0E0,3.540957E2,4.3159973E2,6.697529E2,1.2801738E3,7.894116E2,8.331907E2,1.1615511E3,6.357158E2,1.43515625E1,3.0020642E2,4.36249E2,8.358826E0,1.3672131E2,0E0,9.130151E1,4.4692612E-1,4.4335938E-1,1.9320435E2,0E0,3.3071564E1,2.5633093E2,0E0,2.1286963E2,1.0168134E3,4.525724E2,0E0,3.616148E2,3.9928387E2,8.729151E2,1.0324741E3,6.6760846E2,1.7919922E-1,0E0,0E0,0E0,0E0,0E0,0E0,0E0,0E0,0E0,0E0,0E0,0E0,0E0,0E0,0E0,0E0,0E0,0E0,0E0,0E0,0E0,0E0,0E0,0E0,0E0,0E0,0E0,0E0,0E0,0E0,0E0,0E0,0E0,0E0,0E0,0E0,0E0,0E0,0E0,0E0],"parents":[2147483647,0,0,1,1,2,2,3,3,4,4,5,5,6,6,8,8,9,9,10,10,11,11,12,12,13,13,14,14,15,15,17,17,18,18,19,19,21,21,22,22,23,23,24,24,25,25,26,26,27,27,28,28,29,29,30,30,31,31,32,32,33,33,35,35,36,36,37,37,38,38,40,40,41,41,43,43,44,44,45,45,47,47,48,48,49,49,50,50,51,51,52,52],"right_children":[2,4,6,8,10,12,14,-1,16,18,20,22,24,26,28,30,-1,32,34,36,-1,38,40,42,44,46,48,50,52,54,56,58,60,62,-1,64,66,68,70,-1,72,74,-1,76,78,80,-1,82,84,86,88,90,92,-1,-1,-1,-1,-1,-1,-1,-1,-1,-1,-1,-1,-1,-1,-1,-1,-1,-1,-1,-1,-1,-1,-1,-1,-1,-1,-1,-1,-1,-1,-1,-1,-1,-1,-1,-1,-1,-1,-1,-1],"split_conditions":[-1.7859976E0,-1.4160796E0,7.413282E-1,-4.9830067E-1,1.8959074E0,6.888634E-1,-5.575814E-1,-1.1099364E-1,5.767415E-1,1.0624E2,2.0826507E-1,1.2022438E0,6.994106E-1,3.4057415E-1,5.5887373E-3,-2.635484E0,-1.04704194E-1,-2.2042194E-1,-9.746951E-1,1.1585467E0,-1.3076858E-1,1.7888348E0,1.3465661E0,-8.785603E-1,1.5378694E-1,1.2776982E0,-7.4005884E-1,-5.824519E-1,1.54E0,2.1790798E0,6.7589074E-1,-1.3659415E-1,2.2414032E-2,1.1029649E0,-1.4180766E-1,5.0629616E-1,6.616037E-1,-8.069166E-1,1.3390564E0,-1.1708283E-1,1.0524671E0,-1.5605403E0,-1.1641202E-1,3.0202103E0,-7.0378727E-1,-1.1357255E0,-1.2519716E-1,-4.7261924E-2,-2.450811E0,1.8E1,3.7172535E-1,-6.6421276E-1,-4.554351E-1,1.16805114E-1,-1.22674786E-1,-3.1802905E-1,1.1388945E-1,7.243928E-2,-1.18168294E-1,-1.4957167E-1,-1.20903075E-1,1.1048391E-1,-1.832376E-1,1.1178376E-1,-1.4494948E-1,-1.227062E-1,-2.057282E-1,-1.2121425E-1,-1.1787384E-1,-1.1695027E-1,1.2322998E-1,-1.04493015E-1,1.4690582E-1,3.2452068E-1,1.16497375E-1,-1.189117E-1,-8.685688E-3,8.710257E-2,-8.827474E-2,-4.9291406E-2,9.26797E-2,1.0183455E-1,-1.2374766E-1,7.651993E-2,-1.23977005E-1,-1.381508E-1,1.2024059E-1,-9.845691E-2,2.5292179E-2,5.103461E-2,-1.3043486E-1,-1.2400942E-1,-1.1855616E-1],"split_indices":[14,12,4,4,4,7,12,0,10,29,23,26,7,14,8,14,0,15,10,7,0,22,12,19,4,3,7,7,29,7,6,26,27,18,0,19,18,14,21,0,19,13,0,7,10,11,0,18,19,30,16,9,14,0,0,0,0,0,0,0,0,0,0,0,0,0,0,0,0,0,0,0,0,0,0,0,0,0,0,0,0,0,0,0,0,0,0,0,0,0,0,0,0],"split_type":[0,0,0,0,0,0,0,0,0,0,0,0,0,0,0,0,0,0,0,0,0,0,0,0,0,0,0,0,0,0,0,0,0,0,0,0,0,0,0,0,0,0,0,0,0,0,0,0,0,0,0,0,0,0,0,0,0,0,0,0,0,0,0,0,0,0,0,0,0,0,0,0,0,0,0,0,0,0,0,0,0,0,0,0,0,0,0,0,0,0,0,0,0],"sum_hessian":[6.095665E4,2.6062031E4,3.4894617E4,2.294946E4,3.1125708E3,2.2844656E4,1.204996E4,1.7069517E1,2.293239E4,1.7103761E3,1.4021946E3,1.736793E4,5.476725E3,4.0391108E3,8.010849E3,2.2924271E4,8.119424E0,1.0745162E3,6.358599E2,1.3682383E3,3.3956306E1,1.7102857E4,2.650731E2,3.1518323E2,5.161542E3,2.6375999E3,1.4015107E3,3.9407231E3,4.0701262E3,2.2687703E4,2.3656743E2,5.804527E2,4.940635E2,5.71384E2,6.447595E1,1.3519001E3,1.6338226E1,1.6958168E4,1.4468915E2,1.3204819E2,1.3302489E2,2.396669E2,7.551633E1,3.8409639E3,1.320578E3,2.4311777E3,2.0642224E2,4.902642E2,9.112466E2,8.6790405E2,3.072819E3,8.407432E2,3.2293828E3,2.2685963E4,1.7405064E0,1.6397488E1,2.2016995E2,4.1216846E2,1.6828426E2,2.368517E2,2.5721182E2,5.5594403E2,1.5439963E1,1.3387189E3,1.3181276E1,1.0787825E1,5.550401E0,1.8544585E3,1.510371E4,5.083336E1,9.38558E1,4.775245E0,1.2824965E2,1.2251692E2,1.1714998E2,3.6567725E3,1.8419144E2,6.6849304E2,6.52085E2,2.4966235E2,2.1815154E3,4.050138E2,8.525038E1,1.1273546E2,7.985111E2,1.5939543E2,7.085086E2,2.074808E3,9.9801105E2,5.021854E2,3.3855786E2,6.887979E2,2.540585E3],"tree_param":{"num_deleted":"0","num_feature":"31","num_nodes":"93","size_leaf_vector":"1"}},{"base_weights":[-1.1716929E-3,1.0538818E0,-7.7889365E-1,1.1422694E0,4.1188756E-1,-1.0216833E0,-3.301767E-1,-1.0876081E-1,1.1439881E0,-4.3856688E-2,9.7449523E-1,-1.1297014E0,-6.8659E-1,2.1093516E-1,-6.395851E-1,1.1448112E0,-1.022776E-1,2.868477E-1,-1.1854976E-1,1.0314416E0,-1.2677771E-1,-1.1490633E0,1.00732505E-1,3.8525558E-1,-9.3162495E-1,9.412545E-1,-1.5709095E-1,4.8119813E-2,-8.464748E-1,1.1483878E0,8.029143E-1,-6.880212E-1,7.640973E-1,-1.5026529E-1,1.0675269E0,-1.1621898E-1,3.766713E-1,-1.1504068E-1,1.3069955E0,-1.202415E-1,1.1757894E0,2.9285938E-1,-1.1209522E0,1.0046374E0,-1.7861955E0,-6.764038E-1,4.6309182E-1,-1.214728E-1,3.2896957E-1,-9.791307E-1,7.842442E-1,1.1486337E-1,-1.1553279E-1,1.1207916E-1,-2.6425657E-1,-1.2793925E-1,1.0778834E-1,8.7232135E-2,-2.2636838E-1,-1.6779952E-1,1.0922282E-1,-1.1469593E-1,1.20042734E-1,1.4009677E-1,-1.0333412E-1,-1.21167935E-1,1.5732609E-1,1.09371714E-1,-1.18291974E-1,-1.1764001E-1,8.397845E-3,1.0606702E-1,-1.5781465E-1,-2.1026103E-1,-1.2362794E-1,-1.05414174E-1,6.544047E-2,8.163073E-2,-6.686264E-2,5.521677E-2,-1.4612745E-1,3.14603E-2,-1.1329446E-1,-1.2588698E-1,1.22950256E-1],"categories":[],"categories_nodes":[],"categories_segments":[],"categories_sizes":[],"default_left":[0,0,0,0,0,0,0,0,0,0,0,0,0,0,0,0,0,0,0,0,0,0,0,0,0,0,0,0,0,0,0,0,0,0,0,0,0,0,0,0,0,0,0,0,0,0,0,0,0,0,0,0,0,0,0,0,0,0,0,0,0,0,0,0,0,0,0,0,0,0,0,0,0,0,0,0,0,0,0,0,0,0,0,0,0],"id":13,"left_children":[1,3,5,7,9,11,13,-1,15,17,19,21,23,25,27,29,-1,31,-1,33,-1,35,37,39,41,43,45,47,49,51,53,55,57,-1,59,-1,61,-1,63,-1,65,67,69,71,73,75,77,-1,79,81,83,-1,-1,-1,-1,-1,-1,-1,-1,-1,-1,-1,-1,-1,-1,-1,-1,-1,-1,-1,-1,-1,-1,-1,-1,-1,-1,-1,-1,-1,-1,-1,-1,-1,-1],"loss_changes":[4.6425355E4,1.3618984E3,3.547996E3,8.211914E1,7.454158E2,7.642031E2,1.914967E3,0E0,3.877539E1,6.0705225E2,1.6743384E2,3.8083594E2,1.3541328E3,1.1186295E3,1.0353496E3,2.4855469E1,0E0,5.80629E2,0E0,1.1767847E2,0E0,3.155371E2,3.765342E2,1.2060853E3,9.730056E2,2.4286829E2,8.917583E2,5.9758704E2,1.2108484E3,1.31484375E1,2.4561821E2,4.2987024E2,2.7641736E2,0E0,8.6747925E1,0E0,1.7076486E2,0E0,2.9375E1,0E0,6.10441E2,6.662806E2,2.4289111E2,1.9899744E2,2.9739914E0,7.581785E2,5.0502652E2,0E0,5.5151984E2,1.0298442E3,3.848734E2,0E0,0E0,0E0,0E0,0E0,0E0,0E0,0E0,0E0,0E0,0E0,0E0,0E0,0E0,0E0,0E0,0E0,0E0,0E0,0E0,0E0,0E0,0E0,0E0,0E0,0E0,0E0,0E0,0E0,0E0,0E0,0E0,0E0,0E0],"parents":[2147483647,0,0,1,1,2,2,3,3,4,4,5,5,6,6,8,8,9,9,10,10,11,11,12,12,13,13,14,14,15,15,17,17,19,19,21,21,22,22,23,23,24,24,25,25,26,26,27,27,28,28,29,29,30,30,31,31,32,32,34,34,36,36,38,38,40,40,41,41,42,42,43,43,44,44,45,45,46,46,48,48,49,49,50,50],"right_children":[2,4,6,8,10,12,14,-1,16,18,20,22,24,26,28,30,-1,32,-1,34,-1,36,38,40,42,44,46,48,50,52,54,56,58,-1,60,-1,62,-1,64,-1,66,68,70,72,74,76,78,-1,80,82,84,-1,-1,-1,-1,-1,-1,-1,-1,-1,-1,-1,-1,-1,-1,-1,-1,-1,-1,-1,-1,-1,-1,-1,-1,-1,-1,-1,-1,-1,-1,-1,-1,-1,-1],"split_conditions":[-1.7859976E0,-1.4160796E0,7.413282E-1,-4.9830067E-1,1.8959074E0,6.888634E-1,-4.480329E-1,-1.0876081E-1,5.767415E-1,2.2414032E-2,2.0826507E-1,1.2022438E0,-8.785603E-1,-8.2587683E-1,1.54E0,-2.635484E0,-1.022776E-1,-2.005085E-2,-1.1854976E-1,-6.626826E-2,-1.2677771E-1,1.7888348E0,1.3465661E0,1.8E1,-2.588338E0,9.864051E-1,5.47024E-1,9.92398E-3,1.6188225E0,2.1790798E0,-1.5891272E0,1.360379E0,1.3475983E0,-1.5026529E-1,-2.2903927E-1,-1.1621898E-1,1.3390564E0,-1.1504068E-1,1.381524E0,-1.202415E-1,2.0766005E-1,-2.137598E-1,3.0202103E0,1.2456738E0,1.0556318E0,2.5466412E-1,8.003791E-3,-1.214728E-1,9.573483E-1,-5.0159526E-1,2.4474049E0,1.1486337E-1,-1.1553279E-1,1.1207916E-1,-2.6425657E-1,-1.2793925E-1,1.0778834E-1,8.7232135E-2,-2.2636838E-1,-1.6779952E-1,1.0922282E-1,-1.1469593E-1,1.20042734E-1,1.4009677E-1,-1.0333412E-1,-1.21167935E-1,1.5732609E-1,1.09371714E-1,-1.18291974E-1,-1.1764001E-1,8.397845E-3,1.0606702E-1,-1.5781465E-1,-2.1026103E-1,-1.2362794E-1,-1.05414174E-1,6.544047E-2,8.163073E-2,-6.686264E-2,5.521677E-2,-1.4612745E-1,3.14603E-2,-1.1329446E-1,-1.2588698E-1,1.22950256E-1],"split_indices":[14,12,4,4,4,7,12,0,10,27,23,26,19,14,29,14,0,27,0,11,0,22,12,30,3,19,22,28,17,7,1,23,11,0,20,0,21,0,12,0,18,26,7,1,3,28,27,0,15,20,4,0,0,0,0,0,0,0,0,0,0,0,0,0,0,0,0,0,0,0,0,0,0,0,0,0,0,0,0,0,0,0,0,0,0],"split_type":[0,0,0,0,0,0,0,0,0,0,0,0,0,0,0,0,0,0,0,0,0,0,0,0,0,0,0,0,0,0,0,0,0,0,0,0,0,0,0,0,0,0,0,0,0,0,0,0,0,0,0,0,0,0,0,0,0,0,0,0,0,0,0,0,0,0,0,0,0,0,0,0,0,0,0,0,0,0,0,0,0,0,0,0,0],"sum_hessian":[5.657715E4,2.400786E4,3.2569287E4,2.1101848E4,2.9060117E3,2.1133303E4,1.1435985E4,1.5765487E1,2.1086082E4,1.6059902E3,1.3000214E3,1.5979809E4,5.153494E3,4.160381E3,7.275605E3,2.1078547E4,7.534704E0,1.2458483E3,3.601419E2,1.2683495E3,3.1671883E1,1.57323125E4,2.4749579E2,9.5881573E2,4.194678E3,1.3935101E3,2.7668708E3,1.6827811E3,5.5928237E3,2.0857992E4,2.2055554E2,4.0931216E2,8.3653613E2,1.723708E1,1.2511124E3,1.5598353E4,1.3395981E2,1.2151077E2,1.2598501E2,3.1854468E2,6.4027106E2,5.616474E2,3.6330308E3,1.3624794E3,3.1030796E1,1.5058499E3,1.261021E3,3.055487E2,1.3772324E3,5.172454E3,4.2036957E2,2.0856266E4,1.7257785E0,2.0254372E2,1.8011818E1,3.0683414E2,1.0247802E2,8.0835443E2,2.8181667E1,1.055894E1,1.2405535E3,4.6872124E1,8.7087685E1,1.2150748E2,4.477532E0,9.1088234E1,5.491828E2,3.6424323E2,1.9740417E2,3.4732256E3,1.5980524E2,1.3341252E3,2.835415E1,1.7904985E1,1.3125811E1,1.1730874E3,3.3276236E2,9.612792E2,2.9974176E2,1.2251755E3,1.5205684E2,5.49505E2,4.622949E3,7.4892105E1,3.4547745E2],"tree_param":{"num_deleted":"0","num_feature":"31","num_nodes":"85","size_leaf_vector":"1"}},{"base_weights":[-1.3110434E-3,1.0358179E0,-7.5642896E-1,1.1254501E0,4.0003896E-1,-1.0026684E0,-3.1473076E-1,-1.3093247E-1,1.1276778E0,-1.4618419E-1,9.517742E-1,-1.112206E0,-6.674707E-1,1.2038696E-1,-6.685381E-1,1.1285545E0,-1.3080347E-1,4.0009025E-1,-9.789587E-1,9.9757755E-1,-1.9322948E0,-1.1314833E0,9.662989E-2,3.6240438E-1,-9.099382E-1,2.9141033E-1,-9.199849E-1,3.467589E-2,-8.9235777E-1,-1.2828429E-1,1.1293274E0,7.543364E-1,-1.3986533E0,-1.3180412E0,6.215385E-1,1.0251994E0,-1.791095E0,-1.2884775E-1,-3.1601257E0,-1.144468E-1,3.6814722E-1,-1.1323836E-1,1.2524765E0,-1.17978685E-1,1.092273E0,2.7788788E-1,-1.098492E0,5.913758E-1,-3.6843953E-1,8.420873E-1,-1.2226608E-1,7.685382E-1,-5.6321025E-1,4.1326246E-1,-1.1091505E0,1.1298726E-1,-1.5141855E-1,-1.17808975E-1,1.0020776E-1,-2.5289112E-1,-1.313896E-1,-1.5063909E-1,-1.15953505E-1,1.12224534E-1,-1.1778917E-1,1.05078116E-1,-1.1845733E-1,-1.3504432E-1,-2.4928582E-1,-9.387977E-2,-3.396608E-1,-1.1268753E-1,1.17225446E-1,-9.8276146E-2,1.3461618E-1,-1.17173396E-1,1.4753605E-1,1.0258025E-1,-1.1622169E-1,-1.1572565E-1,7.566484E-3,7.003831E-2,-1.30908E-1,7.651344E-2,-8.774864E-2,1.17048614E-1,-1.492674E-1,-1.3571553E-1,1.1660854E-1,-1.3270174E-1,6.664696E-2,-1.2616768E-1,1.24720335E-1,9.071894E-2,-1.17297016E-1],"categories":[],"categories_nodes":[],"categories_segments":[],"categories_sizes":[],"default_left":[0,0,0,0,0,0,0,0,0,0,0,0,0,0,0,0,0,0,0,0,0,0,0,0,0,0,0,0,0,0,0,0,0,0,0,0,0,0,0,0,0,0,0,0,0,0,0,0,0,0,0,0,0,0,0,0,0,0,0,0,0,0,0,0,0,0,0,0,0,0,0,0,0,0,0,0,0,0,0,0,0,0,0,0,0,0,0,0,0,0,0,0,0,0,0],"id":14,"left_children":[1,3,5,7,9,11,13,-1,15,17,19,21,23,25,27,29,-1,31,33,35,37,39,41,43,45,47,49,51,53,-1,55,57,59,61,63,65,67,-1,69,-1,71,-1,73,-1,75,77,79,81,83,85,-1,87,89,91,93,-1,-1,-1,-1,-1,-1,-1,-1,-1,-1,-1,-1,-1,-1,-1,-1,-1,-1,-1,-1,-1,-1,-1,-1,-1,-1,-1,-1,-1,-1,-1,-1,-1,-1,-1,-1,-1,-1,-1,-1],"loss_changes":[4.104963E4,1.2580371E3,3.298666E3,1.0645117E2,8.229623E2,7.1429297E2,1.6716986E3,0E0,4.276953E1,6.249359E2,1.8137427E2,3.4211133E2,1.1986946E3,8.6685895E2,9.426389E2,3.7484375E1,0E0,5.2976654E2,2.961087E2,1.04887695E2,1.2984764E1,2.8171875E2,3.2997873E2,1.0314916E3,8.703701E2,8.282898E2,3.6788354E2,6.352816E2,1.2863457E3,0E0,2.955664E1,3.333651E2,9.789459E0,1.1667175E1,8.76387E1,7.616675E1,8.0366135E-1,0E0,3.4851074E-1,0E0,1.5130814E2,0E0,2.6382599E1,0E0,5.409873E2,5.7525214E2,2.3142432E2,5.968265E2,7.5549854E2,7.951311E1,0E0,5.508772E2,7.5029456E2,9.0621545E2,5.0245166E2,0E0,0E0,0E0,0E0,0E0,0E0,0E0,0E0,0E0,0E0,0E0,0E0,0E0,0E0,0E0,0E0,0E0,0E0,0E0,0E0,0E0,0E0,0E0,0E0,0E0,0E0,0E0,0E0,0E0,0E0,0E0,0E0,0E0,0E0,0E0,0E0,0E0,0E0,0E0,0E0],"parents":[2147483647,0,0,1,1,2,2,3,3,4,4,5,5,6,6,8,8,9,9,10,10,11,11,12,12,13,13,14,14,15,15,17,17,18,18,19,19,20,20,21,21,22,22,23,23,24,24,25,25,26,26,27,27,28,28,30,30,31,31,32,32,33,33,34,34,35,35,36,36,38,38,40,40,42,42,44,44,45,45,46,46,47,47,48,48,49,49,51,51,52,52,53,53,54,54],"right_children":[2,4,6,8,10,12,14,-1,16,18,20,22,24,26,28,30,-1,32,34,36,38,40,42,44,46,48,50,52,54,-1,56,58,60,62,64,66,68,-1,70,-1,72,-1,74,-1,76,78,80,82,84,86,-1,88,90,92,94,-1,-1,-1,-1,-1,-1,-1,-1,-1,-1,-1,-1,-1,-1,-1,-1,-1,-1,-1,-1,-1,-1,-1,-1,-1,-1,-1,-1,-1,-1,-1,-1,-1,-1,-1,-1,-1,-1,-1,-1],"split_conditions":[-1.7859976E0,-1.7696148E0,7.413282E-1,-4.8604634E-1,2.1870494E0,6.888634E-1,-2.1248002E-1,-1.3093247E-1,3.1570253E-1,-1.1702472E-1,7.382561E-1,1.2022438E0,-8.785603E-1,1.2776982E0,1.54E0,-4.8450577E-1,-1.3080347E-1,5.292838E-1,1.66793E5,1.55872E5,1.4278326E0,1.7888348E0,1.3465661E0,1.8E1,-2.588338E0,3.4057415E-1,-2.450811E0,-1.2530242E-1,-4.7247222E-1,-1.2828429E-1,-1.8931006E0,-2.0593171E-1,-1.4160796E0,-1.1814422E-1,-1.0690001E0,5.767415E-1,-1.7334133E-1,-1.2884775E-1,-2.0831303E-1,-1.144468E-1,1.3390564E0,-1.1323836E-1,4.590445E-1,-1.17978685E-1,-2.7838778E-1,-2.137598E-1,3.0202103E0,1.2456738E0,-7.4005884E-1,-2.9738042E0,-1.2226608E-1,-3.1325647E-1,1.2890148E0,-5.7694703E-1,-2.0208135E0,1.1298726E-1,-1.5141855E-1,-1.17808975E-1,1.0020776E-1,-2.5289112E-1,-1.313896E-1,-1.5063909E-1,-1.15953505E-1,1.12224534E-1,-1.1778917E-1,1.05078116E-1,-1.1845733E-1,-1.3504432E-1,-2.4928582E-1,-9.387977E-2,-3.396608E-1,-1.1268753E-1,1.17225446E-1,-9.8276146E-2,1.3461618E-1,-1.17173396E-1,1.4753605E-1,1.0258025E-1,-1.1622169E-1,-1.1572565E-1,7.566484E-3,7.003831E-2,-1.30908E-1,7.651344E-2,-8.774864E-2,1.17048614E-1,-1.492674E-1,-1.3571553E-1,1.1660854E-1,-1.3270174E-1,6.664696E-2,-1.2616768E-1,1.24720335E-1,9.071894E-2,-1.17297016E-1],"split_indices":[14,10,4,4,4,7,12,0,12,22,13,26,19,3,29,11,0,16,0,0,18,22,12,30,3,14,19,22,20,0,14,21,12,26,7,10,21,0,11,0,21,0,25,0,4,26,7,1,7,12,0,22,11,20,10,0,0,0,0,0,0,0,0,0,0,0,0,0,0,0,0,0,0,0,0,0,0,0,0,0,0,0,0,0,0,0,0,0,0,0,0,0,0,0,0],"split_type":[0,0,0,0,0,0,0,0,0,0,0,0,0,0,0,0,0,0,0,0,0,0,0,0,0,0,0,0,0,0,0,0,0,0,0,0,0,0,0,0,0,0,0,0,0,0,0,0,0,0,0,0,0,0,0,0,0,0,0,0,0,0,0,0,0,0,0,0,0,0,0,0,0,0,0,0,0,0,0,0,0,0,0,0,0,0,0,0,0,0,0,0,0,0,0],"sum_hessian":[5.241374E4,2.2083047E4,3.033069E4,1.9353777E4,2.7292708E3,1.947335E4,1.085734E4,1.7154343E1,1.9336623E4,1.3718556E3,1.3574152E3,1.4675348E4,4.798002E3,4.869461E3,5.9878784E3,1.9330201E4,6.421179E0,8.287444E2,5.431112E2,1.3368383E3,2.0576897E1,1.4445058E4,2.3029085E2,9.1425037E2,3.8837517E3,4.1826143E3,6.8684656E2,1.4458956E3,4.541983E3,5.662846E0,1.9324537E4,6.928705E2,1.358739E2,4.483087E2,9.480253E1,1.3243529E3,1.2485363E1,1.48432045E1,5.7336926E0,1.4321292E4,1.2376488E2,1.1162263E2,1.1866822E2,2.9349258E2,6.2075775E2,5.319802E2,3.3517712E3,2.8755176E3,1.3070968E3,1.004251E2,5.8642145E2,6.490042E2,7.968915E2,6.466529E2,3.8953298E3,1.9321127E4,3.4114945E0,7.830689E1,6.1456354E2,7.466696E0,1.2840721E2,2.0098221E2,2.4732649E2,7.445979E1,2.0342737E1,1.3097153E3,1.4637651E1,9.465889E0,3.019474E0,1.0298584E0,4.703834E0,4.314566E1,8.061922E1,4.3919044E0,1.1427631E2,8.953815E1,5.312196E2,3.503267E2,1.8165356E2,3.1920303E3,1.5974106E2,2.7201267E3,1.5539095E2,4.0491235E2,9.021845E2,8.847869E1,1.1946411E1,1.01873024E2,5.4713116E2,4.9151266E2,3.053788E2,2.1477412E2,4.3187872E2,1.19103935E2,3.776226E3],"tree_param":{"num_deleted":"0","num_feature":"31","num_nodes":"95","size_leaf_vector":"1"}},{"base_weights":[-1.5779082E-3,1.0197285E0,-7.3658556E-1,1.1151955E0,4.1628826E-1,-9.856161E-1,-3.0182663E-1,1.1159582E0,-9.6131235E-2,-2.9301673E-2,9.2688847E-1,-1.0968413E0,-6.4989984E-1,1.12499416E-1,-6.480247E-1,-1.8609184E-1,1.1163539E0,-3.6767602E-1,8.2907397E-1,-1.5270782E-1,9.832249E-1,-1.1160395E0,9.3095526E-2,3.4259358E-1,-8.89756E-1,-2.2886333E-1,6.1181885E-1,3.1212008E-2,-8.7173253E-1,-9.6891336E-2,1.1166143E0,2.7764428E-1,-1.3282228E0,1.0622418E0,-1.3557059E-1,1.0211319E0,-1.5479736E0,-1.128904E-1,3.604709E-1,-1.11638784E-1,1.2067889E0,-1.15989365E-1,1.021385E0,2.63657E-1,-1.0779463E0,-2.542048E-2,-1.3948958E0,8.4174126E-1,-7.5360984E-1,8.58546E-1,-4.71069E-1,3.855095E-1,-1.0901843E0,1.11972116E-1,9.3148366E-2,5.5477884E-2,-1.3407387E-1,-1.4620928E-1,-1.1777313E-1,1.1264949E-1,-1.653379E-1,1.0443454E-1,-1.8662675E-1,-1.1493621E-1,-2.054495E-1,-1.1088461E-1,1.1470677E-1,-9.82879E-2,1.2976772E-1,-1.1922975E-1,1.3727431E-1,9.620728E-2,-1.1439331E-1,-1.1404395E-1,6.8170815E-3,-1.00943804E-1,2.578797E-2,-1.7301081E-1,-1.3261937E-1,8.871815E-2,-1.6120695E-1,-1.3378732E-1,9.4758354E-2,1.2314457E-1,-1.482337E-1,-9.401254E-2,9.0244204E-2,-1.2325863E-1,1.1453682E-1,8.4972754E-2,-1.1545856E-1],"categories":[],"categories_nodes":[],"categories_segments":[],"categories_sizes":[],"default_left":[0,0,0,0,0,0,0,0,0,0,0,0,0,0,0,0,0,0,0,0,0,0,0,0,0,0,0,0,0,0,0,0,0,0,0,0,0,0,0,0,0,0,0,0,0,0,0,0,0,0,0,0,0,0,0,0,0,0,0,0,0,0,0,0,0,0,0,0,0,0,0,0,0,0,0,0,0,0,0,0,0,0,0,0,0,0,0,0,0,0,0],"id":15,"left_children":[1,3,5,7,9,11,13,15,-1,17,19,21,23,25,27,-1,29,31,33,-1,35,37,39,41,43,45,47,49,51,-1,53,55,57,59,-1,61,63,-1,65,-1,67,-1,69,71,73,75,77,79,81,83,85,87,89,-1,-1,-1,-1,-1,-1,-1,-1,-1,-1,-1,-1,-1,-1,-1,-1,-1,-1,-1,-1,-1,-1,-1,-1,-1,-1,-1,-1,-1,-1,-1,-1,-1,-1,-1,-1,-1,-1],"loss_changes":[3.6378176E4,1.1678789E3,3.0507441E3,2.8804688E1,6.3066943E2,6.6830664E2,1.4724019E3,2.269336E1,0E0,4.304971E2,1.8007874E2,3.0751465E2,1.0623247E3,7.967091E2,8.4975757E2,0E0,1.0587891E1,6.5929785E2,2.1492969E2,0E0,1.22798096E2,2.5195312E2,2.903885E2,8.874811E2,7.80228E2,6.5859595E2,5.9646906E2,5.7654584E2,1.155779E3,0E0,9.0234375E0,2.862991E2,6.8876343E0,6.8033356E1,0E0,8.5417114E1,1.482502E0,0E0,1.3435196E2,0E0,2.360408E1,0E0,4.6763293E2,4.973915E2,2.213518E2,6.5955963E2,7.2038574E0,1.8260437E2,2.7366327E2,4.5932193E2,5.570581E2,7.679853E2,4.4877002E2,0E0,0E0,0E0,0E0,0E0,0E0,0E0,0E0,0E0,0E0,0E0,0E0,0E0,0E0,0E0,0E0,0E0,0E0,0E0,0E0,0E0,0E0,0E0,0E0,0E0,0E0,0E0,0E0,0E0,0E0,0E0,0E0,0E0,0E0,0E0,0E0,0E0,0E0],"parents":[2147483647,0,0,1,1,2,2,3,3,4,4,5,5,6,6,7,7,9,9,10,10,11,11,12,12,13,13,14,14,16,16,17,17,18,18,20,20,21,21,22,22,23,23,24,24,25,25,26,26,27,27,28,28,30,30,31,31,32,32,33,33,35,35,36,36,38,38,40,40,42,42,43,43,44,44,45,45,46,46,47,47,48,48,49,49,50,50,51,51,52,52],"right_children":[2,4,6,8,10,12,14,16,-1,18,20,22,24,26,28,-1,30,32,34,-1,36,38,40,42,44,46,48,50,52,-1,54,56,58,60,-1,62,64,-1,66,-1,68,-1,70,72,74,76,78,80,82,84,86,88,90,-1,-1,-1,-1,-1,-1,-1,-1,-1,-1,-1,-1,-1,-1,-1,-1,-1,-1,-1,-1,-1,-1,-1,-1,-1,-1,-1,-1,-1,-1,-1,-1,-1,-1,-1,-1,-1,-1],"split_conditions":[-1.7859976E0,-1.9415451E0,7.413282E-1,5.767415E-1,1.8959074E0,6.888634E-1,-2.1248002E-1,4.6018746E-2,-9.6131235E-2,1.84E2,-8.7419903E-1,1.2022438E0,-8.785603E-1,5.0019497E-1,1.54E0,-1.8609184E-1,5.761E3,-1.9154577E-1,-1.4045628E0,-1.5270782E-1,2.438503E-1,1.7888348E0,1.3465661E0,1.8E1,-2.588338E0,2.96552E0,1.2427965E0,9.120405E-1,-4.7247222E-1,-9.6891336E-2,2.1755762E0,5.3382194E-1,2.3507416E-2,4.6772346E-1,-1.3557059E-1,1.55872E5,4.227811E-2,-1.128904E-1,1.3390564E0,-1.11638784E-1,1.0524671E0,-1.15989365E-1,2.0766005E-1,-2.137598E-1,3.0202103E0,1.202333E0,-3.727122E-1,1.347566E0,4.77456E0,3.127109E-2,7.2650313E-1,-5.7694703E-1,-2.0208135E0,1.11972116E-1,9.3148366E-2,5.5477884E-2,-1.3407387E-1,-1.4620928E-1,-1.1777313E-1,1.1264949E-1,-1.653379E-1,1.0443454E-1,-1.8662675E-1,-1.1493621E-1,-2.054495E-1,-1.1088461E-1,1.1470677E-1,-9.82879E-2,1.2976772E-1,-1.1922975E-1,1.3727431E-1,9.620728E-2,-1.1439331E-1,-1.1404395E-1,6.8170815E-3,-1.00943804E-1,2.578797E-2,-1.7301081E-1,-1.3261937E-1,8.871815E-2,-1.6120695E-1,-1.3378732E-1,9.4758354E-2,1.2314457E-1,-1.482337E-1,-9.401254E-2,9.0244204E-2,-1.2325863E-1,1.1453682E-1,8.4972754E-2,-1.1545856E-1],"split_indices":[14,12,4,10,4,7,12,11,0,29,22,26,19,11,29,0,0,15,10,0,22,22,12,30,3,4,13,4,20,0,17,7,27,16,0,0,21,0,21,0,19,0,18,26,7,4,8,18,4,28,20,20,10,0,0,0,0,0,0,0,0,0,0,0,0,0,0,0,0,0,0,0,0,0,0,0,0,0,0,0,0,0,0,0,0,0,0,0,0,0,0],"split_type":[0,0,0,0,0,0,0,0,0,0,0,0,0,0,0,0,0,0,0,0,0,0,0,0,0,0,0,0,0,0,0,0,0,0,0,0,0,0,0,0,0,0,0,0,0,0,0,0,0,0,0,0,0,0,0,0,0,0,0,0,0,0,0,0,0,0,0,0,0,0,0,0,0,0,0,0,0,0,0,0,0,0,0,0,0,0,0,0,0,0,0],"sum_hessian":[4.8459074E4,2.027969E4,2.8179383E4,1.750886E4,2.7708308E3,1.7915877E4,1.0263506E4,1.7502893E4,5.966147E0,1.4801116E3,1.2907192E3,1.3455653E4,4.460223E3,4.672356E3,5.59115E3,1.7010201E0,1.7501191E4,1.0620283E3,4.1808325E2,2.8380554E1,1.2623387E3,1.3242071E4,2.1358249E2,8.680242E2,3.5921987E3,2.7754468E3,1.8969093E3,1.3854413E3,4.2057085E3,1.7213979E0,1.749947E4,6.356758E2,4.2635257E2,3.7823083E2,3.9852406E1,1.2443008E3,1.803794E1,1.3127926E4,1.14145035E2,1.0238683E2,1.11195656E2,2.698996E2,5.981246E2,5.038311E2,3.0883677E3,2.3640095E3,4.1143738E2,1.6238545E3,2.7305484E2,5.2310223E2,8.6233905E2,6.2247174E2,3.5832368E3,1.7205678E4,2.9379236E2,5.432978E2,9.2378E1,2.2102443E2,2.0532816E2,3.7006018E2,8.170647E0,1.2350101E3,9.290648E0,1.1923646E1,6.114294E0,3.9657486E1,7.448755E1,4.040411E0,1.0715524E2,8.1603004E1,5.165216E2,3.3695688E2,1.6687422E2,2.9286833E3,1.5968436E2,5.2788513E2,1.8361243E3,6.586858E1,3.455688E2,1.5949572E3,2.8897337E1,2.0340897E2,6.9645874E1,4.5163177E2,7.147043E1,6.430514E2,2.1928764E2,1.987077E2,4.2376404E2,1.1474227E2,3.4684944E3],"tree_param":{"num_deleted":"0","num_feature":"31","num_nodes":"91","size_leaf_vector":"1"}},{"base_weights":[-1.800976E-3,1.0043476E0,-7.162146E-1,1.101697E0,4.017655E-1,-9.7009754E-1,-2.8774372E-1,1.1024607E0,-9.410503E-2,-2.9132126E-2,9.0495265E-1,-1.0832936E0,-6.33318E-1,1.777197E-2,-7.359113E-1,-1.7716523E-1,1.1028692E0,2.993412E-1,-8.5374004E-1,-1.4821735E-1,9.60233E-1,-1.1024257E0,8.992773E-2,1.1363137E0,-7.634918E-1,7.717132E-1,-2.1306357E-1,9.3185596E-2,-9.257E-1,1.1064561E-1,8.939903E-1,7.06445E-1,-7.484659E-1,-1.2438035E0,7.4914855E-1,-1.4892578E0,1.001229E0,-1.1151896E-1,3.5347843E-1,-1.10211335E-1,1.167001E0,1.6570727E0,-1.093272E-1,-1.0533788E0,-6.1226124E-3,9.9931246E-1,-1.3048191E-1,2.4918222E-1,-8.113682E-1,7.9179907E-1,-1.1964595E-1,9.173599E-1,-9.8747075E-1,1.00738764E-1,-2.692698E-1,8.817808E-2,-1.2243068E-1,1.0266056E-1,-1.366433E-1,-1.3422708E-1,-1.1205608E-1,1.0870751E-1,-1.1441646E-1,-1.6976671E-1,-1.04611956E-1,-1.4001739E-1,1.0306244E-1,-1.092537E-1,1.12428986E-1,1.2569468E-1,-9.754554E-2,2.0411925E-1,9.9454455E-2,-1.1211075E-1,-6.4403783E-3,6.791916E-2,-7.864677E-2,1.0592791E-1,-1.3228272E-1,5.5353392E-2,-6.81452E-2,-1.0133704E-1,1.04465924E-1,1.02209486E-1,-1.7380492E-1,-1.1753172E-1,1.21599965E-1,8.734625E-3,-1.0933997E-1],"categories":[],"categories_nodes":[],"categories_segments":[],"categories_sizes":[],"default_left":[0,0,0,0,0,0,0,0,0,0,0,0,0,0,0,0,0,0,0,0,0,0,0,0,0,0,0,0,0,0,0,0,0,0,0,0,0,0,0,0,0,0,0,0,0,0,0,0,0,0,0,0,0,0,0,0,0,0,0,0,0,0,0,0,0,0,0,0,0,0,0,0,0,0,0,0,0,0,0,0,0,0,0,0,0,0,0,0,0],"id":16,"left_children":[1,3,5,7,9,11,13,15,-1,17,19,21,23,25,27,-1,29,31,33,-1,35,37,39,41,43,45,47,49,51,-1,53,55,57,59,61,63,65,-1,67,-1,69,71,-1,73,75,77,-1,79,81,83,-1,85,87,-1,-1,-1,-1,-1,-1,-1,-1,-1,-1,-1,-1,-1,-1,-1,-1,-1,-1,-1,-1,-1,-1,-1,-1,-1,-1,-1,-1,-1,-1,-1,-1,-1,-1,-1,-1],"loss_changes":[3.2229793E4,1.0916895E3,2.852003E3,2.6039062E1,5.6181165E2,6.26958E2,1.335989E3,2.0765625E1,0E0,3.7857526E2,1.5915234E2,2.7666113E2,9.55506E2,1.0100903E3,6.2245435E2,0E0,1.1015625E1,4.2691895E2,2.4985956E2,0E0,1.1886365E2,2.2567871E2,2.563017E2,3.3196985E2,8.4763086E2,6.4427704E2,1.2291149E3,6.655455E2,3.673318E2,0E0,1.1483119E2,2.4495776E2,3.0874622E2,2.386383E0,5.1499153E1,3.806305E-2,8.263452E1,0E0,1.1951004E2,0E0,2.1427185E1,5.673474E1,0E0,1.8694629E2,5.7258466E2,1.722113E2,0E0,7.106151E2,7.272655E2,2.808866E2,0E0,6.69821E1,3.5471582E2,0E0,0E0,0E0,0E0,0E0,0E0,0E0,0E0,0E0,0E0,0E0,0E0,0E0,0E0,0E0,0E0,0E0,0E0,0E0,0E0,0E0,0E0,0E0,0E0,0E0,0E0,0E0,0E0,0E0,0E0,0E0,0E0,0E0,0E0,0E0,0E0],"parents":[2147483647,0,0,1,1,2,2,3,3,4,4,5,5,6,6,7,7,9,9,10,10,11,11,12,12,13,13,14,14,16,16,17,17,18,18,20,20,21,21,22,22,23,23,24,24,25,25,26,26,27,27,28,28,30,30,31,31,32,32,33,33,34,34,35,35,36,36,38,38,40,40,41,41,43,43,44,44,45,45,47,47,48,48,49,49,51,51,52,52],"right_children":[2,4,6,8,10,12,14,16,-1,18,20,22,24,26,28,-1,30,32,34,-1,36,38,40,42,44,46,48,50,52,-1,54,56,58,60,62,64,66,-1,68,-1,70,72,-1,74,76,78,-1,80,82,84,-1,86,88,-1,-1,-1,-1,-1,-1,-1,-1,-1,-1,-1,-1,-1,-1,-1,-1,-1,-1,-1,-1,-1,-1,-1,-1,-1,-1,-1,-1,-1,-1,-1,-1,-1,-1,-1,-1],"split_conditions":[-1.7859976E0,-1.9415451E0,7.413282E-1,5.767415E-1,1.8959074E0,6.888634E-1,4.148547E-2,4.6018746E-2,-9.410503E-2,-8.771465E-1,-8.7419903E-1,1.2022438E0,6.994106E-1,-5.824519E-1,-8.069166E-1,-1.7716523E-1,2.1755762E0,5.292838E-1,1.66793E5,-1.4821735E-1,-1.2442464E-2,1.7888348E0,1.3465661E0,-8.785603E-1,1.5378694E-1,-8.215705E-2,-2.1248002E-1,-9.970623E-2,-1.8650155E0,1.1064561E-1,1.4909284E0,1.1709542E0,-8.509862E-1,-1.1814422E-1,-1.0690001E0,5.6154466E-1,5.4089034E-1,-1.1151896E-1,1.3390564E0,-1.10211335E-1,1.381524E0,-1.5605403E0,-1.093272E-1,3.0202103E0,-7.0378727E-1,1.0125302E0,-1.3048191E-1,3.4057415E-1,1.5572423E0,4.70078E-2,-1.1964595E-1,2.3942327E0,-1.8782043E0,1.00738764E-1,-2.692698E-1,8.817808E-2,-1.2243068E-1,1.0266056E-1,-1.366433E-1,-1.3422708E-1,-1.1205608E-1,1.0870751E-1,-1.1441646E-1,-1.6976671E-1,-1.04611956E-1,-1.4001739E-1,1.0306244E-1,-1.092537E-1,1.12428986E-1,1.2569468E-1,-9.754554E-2,2.0411925E-1,9.9454455E-2,-1.1211075E-1,-6.4403783E-3,6.791916E-2,-7.864677E-2,1.0592791E-1,-1.3228272E-1,5.5353392E-2,-6.81452E-2,-1.0133704E-1,1.04465924E-1,1.02209486E-1,-1.7380492E-1,-1.1753172E-1,1.21599965E-1,8.734625E-3,-1.0933997E-1],"split_indices":[14,12,4,10,4,7,8,11,0,10,22,26,7,7,14,0,17,16,0,0,28,22,12,19,4,13,12,12,25,0,13,5,22,26,7,10,18,0,21,0,12,13,0,7,10,12,0,14,13,27,0,10,19,0,0,0,0,0,0,0,0,0,0,0,0,0,0,0,0,0,0,0,0,0,0,0,0,0,0,0,0,0,0,0,0,0,0,0,0],"split_type":[0,0,0,0,0,0,0,0,0,0,0,0,0,0,0,0,0,0,0,0,0,0,0,0,0,0,0,0,0,0,0,0,0,0,0,0,0,0,0,0,0,0,0,0,0,0,0,0,0,0,0,0,0,0,0,0,0,0,0,0,0,0,0,0,0,0,0,0,0,0,0,0,0,0,0,0,0,0,0,0,0,0,0,0,0,0,0,0,0],"sum_hessian":[4.483594E4,1.8616658E4,2.6219285E4,1.6026662E4,2.5899958E3,1.6463098E4,9.7561875E3,1.6021133E4,5.529193E0,1.3957263E3,1.1942694E3,1.2319976E4,4.1431226E3,5.8019565E3,3.954231E3,1.6606083E0,1.6019473E4,9.985872E2,3.9713904E2,2.6446354E1,1.1678231E3,1.2122352E4,1.9762329E2,2.8335522E2,3.8597673E3,1.3594521E3,4.4425044E3,7.366527E2,3.2175781E3,1.5744808E4,2.7466458E2,7.194036E2,2.791836E2,3.1959058E2,7.7548454E1,1.8642078E1,1.149181E3,1.2017232E4,1.05119835E2,9.379418E1,1.0382911E2,2.2991202E2,5.3443214E1,2.7910771E3,1.0686901E3,1.2256346E3,1.3381749E2,2.5065476E3,1.9359567E3,4.780658E2,2.585869E2,1.0389196E2,3.1136863E3,2.6694397E2,7.720618E0,6.6000995E2,5.9393673E1,7.192431E1,2.072593E2,1.7215376E2,1.4743683E2,6.61649E1,1.1383558E1,1.0753614E1,7.8884635E0,1.3333E1,1.135848E3,3.640602E1,6.871381E1,1.0004239E2,3.78672E0,1.4421706E2,8.569496E1,2.61206E3,1.7901709E2,5.690601E2,4.9962994E2,1.1953109E3,3.0323734E1,1.8891357E3,6.174118E2,1.7463458E3,1.896109E2,4.3872406E2,3.934171E1,1.2607947E1,9.128402E1,2.7935565E2,2.8343306E3],"tree_param":{"num_deleted":"0","num_feature":"31","num_nodes":"89","size_leaf_vector":"1"}},{"base_weights":[-1.913176E-3,9.9112064E-1,-6.958746E-1,1.0897337E0,3.9030263E-1,-9.535918E-1,-2.7433988E-1,1.0905002E0,-9.214563E-2,-2.9116917E-2,8.851838E-1,-1.0713102E0,-6.1173147E-1,1.6125381E-2,-7.1191055E-1,-1.6837354E-1,1.0909232E0,-3.473362E-1,7.928463E-1,-1.4419125E-1,9.395288E-1,-1.0903884E0,8.70548E-2,-1.0345728E0,-7.319251E-2,1.5066254E-1,-1.1749511E0,8.895504E-2,-8.9568543E-1,1.094734E-1,8.719493E-1,2.4584766E-1,-1.2901448E0,1.0192394E0,-1.3107993E-1,9.7932875E-1,-1.5613203E0,-1.1030692E-1,3.470347E-1,-1.0893046E-1,1.1319941E0,-1.12185396E-1,3.9053917E-1,5.8934104E-1,-9.0244E-1,4.6009716E-1,-3.26401E-1,-1.13292E-1,-1.3052593E-1,7.561481E-1,-1.17539994E-1,8.9318824E-1,-9.5522976E-1,9.871065E-2,-2.5247172E-1,5.2280724E-2,-1.18643835E-1,-1.4121549E-1,-1.1472801E-1,-1.7701559E-1,1.084216E-1,1.00500286E-1,-1.8825927E-1,-1.1338444E-1,-2.074676E-1,-1.0776675E-1,1.1034465E-1,1.2227012E-1,-9.459807E-2,1.1620196E-1,-1.1378657E-1,1.0952792E-1,-1.1226167E-1,1.0046923E-1,-1.12541616E-1,8.5702E-2,4.878792E-3,6.823646E-2,-6.53515E-2,9.7587876E-2,-1.6763446E-1,-1.1470037E-1,1.1852266E-1,7.871896E-3,-1.0649558E-1],"categories":[],"categories_nodes":[],"categories_segments":[],"categories_sizes":[],"default_left":[0,0,0,0,0,0,0,0,0,0,0,0,0,0,0,0,0,0,0,0,0,0,0,0,0,0,0,0,0,0,0,0,0,0,0,0,0,0,0,0,0,0,0,0,0,0,0,0,0,0,0,0,0,0,0,0,0,0,0,0,0,0,0,0,0,0,0,0,0,0,0,0,0,0,0,0,0,0,0,0,0,0,0,0,0],"id":17,"left_children":[1,3,5,7,9,11,13,15,-1,17,19,21,23,25,27,-1,29,31,33,-1,35,37,39,41,43,45,47,49,51,-1,53,55,57,59,-1,61,63,-1,65,-1,67,-1,69,71,73,75,77,-1,-1,79,-1,81,83,-1,-1,-1,-1,-1,-1,-1,-1,-1,-1,-1,-1,-1,-1,-1,-1,-1,-1,-1,-1,-1,-1,-1,-1,-1,-1,-1,-1,-1,-1,-1,-1],"loss_changes":[2.857829E4,1.01030664E3,2.6516787E3,2.3591797E1,4.995757E2,6.0898047E2,1.1773677E3,1.9027344E1,0E0,3.4126627E2,1.4098376E2,2.4909375E2,8.8405664E2,8.924939E2,5.4402527E2,0E0,1.1269531E1,5.263053E2,1.7476242E2,0E0,1.0897479E2,2.0243164E2,2.2678316E2,2.70958E2,9.393266E2,7.388736E2,1.6171875E0,5.835429E2,3.2105542E2,0E0,1.0240906E2,2.299578E2,4.713806E0,6.1608795E1,0E0,8.001251E1,1.443203E0,0E0,1.06469284E2,0E0,1.9564888E1,0E0,1.5019234E2,8.244663E2,3.2401477E2,4.955788E2,6.503157E2,0E0,0E0,2.4361627E2,0E0,5.9364662E1,3.3019824E2,0E0,0E0,0E0,0E0,0E0,0E0,0E0,0E0,0E0,0E0,0E0,0E0,0E0,0E0,0E0,0E0,0E0,0E0,0E0,0E0,0E0,0E0,0E0,0E0,0E0,0E0,0E0,0E0,0E0,0E0,0E0,0E0],"parents":[2147483647,0,0,1,1,2,2,3,3,4,4,5,5,6,6,7,7,9,9,10,10,11,11,12,12,13,13,14,14,16,16,17,17,18,18,20,20,21,21,22,22,23,23,24,24,25,25,26,26,27,27,28,28,30,30,31,31,32,32,33,33,35,35,36,36,38,38,40,40,42,42,43,43,44,44,45,45,46,46,49,49,51,51,52,52],"right_children":[2,4,6,8,10,12,14,16,-1,18,20,22,24,26,28,-1,30,32,34,-1,36,38,40,42,44,46,48,50,52,-1,54,56,58,60,-1,62,64,-1,66,-1,68,-1,70,72,74,76,78,-1,-1,80,-1,82,84,-1,-1,-1,-1,-1,-1,-1,-1,-1,-1,-1,-1,-1,-1,-1,-1,-1,-1,-1,-1,-1,-1,-1,-1,-1,-1,-1,-1,-1,-1,-1,-1],"split_conditions":[-1.7859976E0,-1.9415451E0,7.413282E-1,5.767415E-1,1.8959074E0,6.888634E-1,4.148547E-2,4.6018746E-2,-9.214563E-2,1.84E2,-8.7419903E-1,1.2022438E0,1.8E1,1.3048515E0,-8.069166E-1,-1.6837354E-1,2.1755762E0,-1.9154577E-1,-1.4045628E0,-1.4419125E-1,5.2214855E-1,1.7888348E0,1.3465661E0,1.5944186E0,-5.171353E-1,-8.215705E-2,5.5362684E-1,-9.970623E-2,-1.8650155E0,1.094734E-1,1.0660988E-2,-1.7279367E-1,2.3507416E-2,-2.385491E0,-1.3107993E-1,1.55872E5,-2.1203528E-1,-1.1030692E-1,1.3390564E0,-1.0893046E-1,-6.591821E-1,-1.12185396E-1,-1.5378519E0,-7.0378727E-1,-1.3991737E0,-4.254906E-1,-1.3155942E0,-1.13292E-1,-1.3052593E-1,4.70078E-2,-1.17539994E-1,2.3942327E0,-1.8782043E0,9.871065E-2,-2.5247172E-1,5.2280724E-2,-1.18643835E-1,-1.4121549E-1,-1.1472801E-1,-1.7701559E-1,1.084216E-1,1.00500286E-1,-1.8825927E-1,-1.1338444E-1,-2.074676E-1,-1.0776675E-1,1.1034465E-1,1.2227012E-1,-9.459807E-2,1.1620196E-1,-1.1378657E-1,1.0952792E-1,-1.1226167E-1,1.0046923E-1,-1.12541616E-1,8.5702E-2,